{"bias": 0.29056820273399353, "layer": "conv1", "i": 0, "weights": [[[0.019552210345864296, -0.00622614286839962, -0.021006545051932335], [0.004341178573668003, -0.024778595194220543, -0.006744024343788624], [0.01356126181781292, -0.007191309239715338, -0.01170028280466795]], [[-0.0019281847635284066, 0.0014644828625023365, -0.005817966070026159], [0.007756768725812435, -0.024884354323148727, -0.0036584027111530304], [-0.010385559871792793, -0.019300054758787155, 0.0028360141441226006]], [[-0.028630675747990608, -0.004950044676661491, 0.012898655608296394], [-0.014721421524882317, -0.0009106454672291875, 0.01944144070148468], [0.0012932290555909276, 0.005313532426953316, 0.015319224447011948]], [[-0.017014168202877045, -0.0034275162033736706, -0.00522899255156517], [-0.0016925508389249444, -0.011846115812659264, 0.0005369815044105053], [0.007162034045904875, -0.009478957392275333, -0.011922653764486313]], [[0.013553468510508537, -0.012647846713662148, -0.007745497860014439], [0.01044134609401226, -0.027037154883146286, -0.023602934554219246], [0.015233258716762066, 0.03333258628845215, 0.01578432321548462]], [[0.024251770228147507, 0.006577185820788145, -0.01357492245733738], [-0.010944836772978306, 0.000294474302791059, -0.0026219512801617384], [0.014938822947442532, -0.022857915610074997, -0.006377269048243761]], [[-0.01029233168810606, -0.028720732778310776, -0.0005417324719019234], [-0.0030130997765809298, -0.012991794385015965, 0.0010117354104295373], [0.002923710271716118, -0.007168784271925688, 0.0005468966555781662]], [[-0.020358318462967873, -0.02501274086534977, -0.044159386307001114], [-0.0035288205835968256, -0.02749260887503624, -0.04571281000971794], [0.0009279401274397969, -0.0026689067017287016, -0.029693474993109703]], [[-0.02034108340740204, -0.0010311289224773645, -0.018149105831980705], [-0.004658277612179518, -0.026618855074048042, -0.0024663179647177458], [0.025321701541543007, -0.012331955134868622, 0.015089503489434719]], [[0.007897917181253433, 0.020940208807587624, 0.013201114721596241], [0.01899159885942936, 0.011119285598397255, -0.006050457712262869], [0.0009897706331685185, -0.0004889726405963302, -0.010762184858322144]], [[-0.016942471265792847, -0.039575982838869095, -0.057672806084156036], [-0.023222869262099266, -0.033835653215646744, -0.05572546645998955], [-0.003137658117339015, -0.03192819282412529, -0.04997123405337334]], [[-0.005702747963368893, -0.011213830672204494, 0.01267082430422306], [-0.01693429797887802, -0.019455604255199432, -0.003765032161027193], [-0.013403811492025852, -0.02045186422765255, -0.00297141051851213]], [[-0.004151901230216026, -0.004412170499563217, -0.022249452769756317], [-0.0061129056848585606, 0.009302154183387756, 0.040296994149684906], [0.0030031774658709764, 0.01122125145047903, 0.02508212998509407]], [[-0.025488300248980522, -0.02940669097006321, -0.027461515739560127], [-0.008511442691087723, -0.053683966398239136, -0.03070850856602192], [0.002134582493454218, -0.003941666334867477, 0.0023103291168808937]], [[0.005785087589174509, 0.009844457730650902, 0.019187768921256065], [-0.0074521442875266075, -0.005374460946768522, 0.007925496436655521], [0.0215200986713171, 0.00033805143903009593, -0.01548993680626154]], [[0.043748024851083755, 0.0029545577708631754, 0.011503675021231174], [0.06744605302810669, 0.026477724313735962, -0.029315656051039696], [0.023440007120370865, 0.0880718007683754, -0.023251356557011604]], [[0.014944947324693203, -0.021378377452492714, -0.0031042881309986115], [0.0066338591277599335, 0.039409339427948, 0.007375512272119522], [-0.01878238655626774, 0.025315556675195694, 0.011955366469919682]], [[-0.003538458840921521, -0.00047730529331602156, 0.010329627431929111], [-0.016317998990416527, 0.026392143219709396, 0.049483999609947205], [-0.023738650605082512, -0.00480720866471529, 0.029219569638371468]], [[-0.023855065926909447, -0.02138114906847477, 0.00029621171415783465], [-0.0036535111721605062, -0.018454821780323982, 0.0005739913904108107], [0.02615722455084324, 0.0019108883570879698, -0.008582204580307007]], [[-0.002642108127474785, -0.00026848181732930243, -0.03757697716355324], [0.01738828979432583, 0.06536999344825745, 0.02882671356201172], [-0.0253879576921463, -0.018842894583940506, 0.1037607192993164]], [[-0.03832566365599632, -0.006778093054890633, -0.0236221756786108], [-0.019744856283068657, 0.005571343936026096, 0.005267003085464239], [-0.012799364514648914, -0.012423857115209103, 0.017577365040779114]], [[0.003381426678970456, -0.02405437082052231, -0.033087264746427536], [0.02333572506904602, -0.01257319375872612, -0.022612670436501503], [0.032674942165613174, 0.017489291727542877, -0.0009387191967107356]], [[0.0002629342779982835, -0.007719068787992001, 0.011986389756202698], [0.02016262151300907, -0.012974675744771957, -0.0114052789285779], [-0.004231695085763931, -0.01161115150898695, -0.009635956026613712]], [[-0.003722479799762368, -0.01111722830682993, 0.032871875911951065], [0.02766553685069084, -0.010369435884058475, -0.005553238559514284], [-0.00040744084981270134, 0.019981374964118004, -0.010276531800627708]], [[0.004744559060782194, 0.014689971692860126, -0.0027781198732554913], [0.002580836648121476, 0.020727507770061493, 0.007419931702315807], [-0.006899026222527027, 0.013009018264710903, 0.008595069870352745]], [[-0.029981590807437897, 0.013463539071381092, -0.04463282227516174], [0.011439107358455658, -0.018871057778596878, -0.03894610330462456], [-0.008624065667390823, -0.005579255521297455, 0.014819243922829628]], [[-0.0014915901701897383, 0.003684296505525708, 0.021343257278203964], [-0.004430648870766163, -0.044243182986974716, -0.016598526388406754], [0.0043756598606705666, -0.02244693785905838, -0.03333643078804016]], [[0.0024749154690653086, 0.0036233447026461363, 0.009026539511978626], [0.02120608650147915, 0.04274879768490791, -0.01476548332720995], [-0.000894159369636327, 0.0381983146071434, -0.013496567495167255]], [[-0.005875383969396353, 0.011072422377765179, 0.0004862890054937452], [-0.031902845948934555, -0.009571957401931286, -0.01621781475841999], [-0.029111796990036964, -0.021678894758224487, 0.0018283437239006162]], [[-0.0024441310670226812, -0.020888030529022217, -0.006087733432650566], [-0.018843144178390503, -0.041385117918252945, -0.009440695866942406], [0.015644000843167305, -0.030400879681110382, -0.028210699558258057]], [[-0.007675698027014732, -0.03479263558983803, -0.012983695603907108], [-0.008875293657183647, -0.03601695969700813, -0.038019709289073944], [-0.012549448758363724, -0.03292778879404068, -0.045591916888952255]], [[-0.009031086228787899, -0.010959876701235771, -0.02136819437146187], [-0.017540382221341133, -0.03348835930228233, -0.020133208483457565], [-0.02120528556406498, -0.02766674943268299, -0.02220737934112549]], [[-0.019567523151636124, 0.028539899736642838, 0.01322209183126688], [-0.0179203562438488, 0.003364026080816984, 0.030027899891138077], [-0.0013374406844377518, -0.01399342343211174, 0.022967152297496796]], [[-0.011506431736052036, 0.023747751489281654, 0.03269173949956894], [-0.006915591657161713, -0.014837771654129028, 0.0008888514130376279], [-0.005919964052736759, -0.012620732188224792, 0.0005700343754142523]], [[0.022858044132590294, -0.039049625396728516, -0.0635402649641037], [0.0019516671309247613, -0.04099028557538986, -0.06280075013637543], [0.018133066594600677, -0.004154602997004986, -0.02531139925122261]], [[-0.002749669598415494, 8.465295104542747e-05, -0.019298654049634933], [-2.1131734683876857e-05, 8.976618119049817e-05, 0.008590279147028923], [0.03143375366926193, 0.012428879737854004, 0.005502819083631039]], [[0.07486141473054886, 0.09769688546657562, -0.017585158348083496], [-0.011579446494579315, 0.1377391815185547, 0.03160274773836136], [-0.02963334135711193, 0.07171580940485, 0.046030402183532715]], [[-0.021471964195370674, -0.020999055355787277, 0.010332316160202026], [-0.021688397973775864, 0.006057154852896929, -0.012697724625468254], [0.00921842735260725, 0.0020838251803070307, -0.005744863301515579]], [[-0.009656270034611225, -0.0013420663308352232, -0.011798587627708912], [-0.014620766043663025, -0.00539569603279233, -0.0036585757043212652], [-0.008045915514230728, -0.01270938292145729, 0.013461246155202389]], [[-0.0007594309281557798, -0.012844196520745754, -0.020986828953027725], [0.023363500833511353, 0.0030536011327058077, -0.007477929349988699], [-0.006028993520885706, -0.00789598561823368, -0.021296078339219093]], [[-0.0025279850233346224, 0.0029123115818947554, 0.012147136963903904], [-0.009145662188529968, -0.014305847696959972, -0.015510541386902332], [-0.01542689185589552, -0.01689671166241169, -0.012893536128103733]], [[-0.01956554688513279, -0.01662391982972622, 0.030585138127207756], [0.0032924837432801723, -0.00564966956153512, -0.0025377587880939245], [0.0029189784545451403, -0.02206306904554367, -0.007973558269441128]], [[0.02807985432446003, 0.020463841035962105, 0.01132984645664692], [0.010620606131851673, 0.0170782208442688, -0.012818200513720512], [0.02981225959956646, 0.0477902777493, 0.004707586485892534]], [[-0.00861314870417118, 0.0380667969584465, 0.0022595643531531096], [-0.03210463747382164, 0.030807485803961754, -0.003023074707016349], [-0.01179156731814146, -0.010042223148047924, 0.002518791938200593]], [[-0.0008529502665624022, -0.027248907834291458, -0.013529976829886436], [-0.0150365699082613, -0.017770487815141678, -0.020177457481622696], [-0.02069682627916336, -0.014825982972979546, 0.0015247776173055172]], [[0.0026144979055970907, 0.010862096212804317, -0.0073702395893633366], [-0.005370188504457474, -0.0049742660485208035, -0.00896374136209488], [0.00560823455452919, -0.011026127263903618, -0.014893325977027416]], [[0.017092321068048477, 0.020687950775027275, 0.00498243048787117], [-0.010647661983966827, 0.004458714742213488, 0.007824685424566269], [0.016480213031172752, -0.004910437390208244, -0.006393651943653822]], [[-0.008363965898752213, -0.01813916675746441, -0.005618347320705652], [0.0028035519644618034, 0.014839231967926025, 0.021587993949651718], [0.03136702626943588, 0.04317307099699974, 0.060052383691072464]], [[0.012798153795301914, -0.02201925776898861, -0.02881515771150589], [-0.002516261301934719, -0.003208742942661047, -0.007524002343416214], [-0.005863194353878498, -0.03316320851445198, -0.025924159213900566]], [[0.009834079071879387, 0.014114507474005222, 0.0180850550532341], [-0.011571562848985195, -0.027439799159765244, -0.015485609881579876], [0.0053581795655190945, 4.8426281864522025e-05, -0.010732902213931084]], [[-0.004091419745236635, 0.004116838797926903, -0.012639261782169342], [0.011705974116921425, -0.02075469307601452, -0.010018564760684967], [-0.0033373928163200617, -0.024562552571296692, -0.0023743498604744673]], [[0.00014871991879772395, 0.01389918103814125, 0.011026764288544655], [0.007657551672309637, -0.021423816680908203, 0.006863224785774946], [-0.026770971715450287, 0.009960542432963848, -0.0004942204686813056]], [[0.013081773184239864, -0.01936127059161663, -0.023081790655851364], [0.020095717161893845, -0.008704273961484432, -0.01856948994100094], [0.00662380363792181, -0.0008793071610853076, -0.007760304491966963]], [[0.015788177028298378, 0.010243269614875317, 0.03155197948217392], [0.043253328651189804, -0.017701098695397377, -0.025570940226316452], [0.045305684208869934, -0.005031145177781582, -0.022471031174063683]], [[0.009108351543545723, -0.0025308062322437763, 0.02391755022108555], [-0.009090224280953407, -0.014712353236973286, -9.823199798120186e-05], [-0.0024486915208399296, -0.011674736626446247, 0.0011782025685533881]], [[-0.004967302083969116, -0.01636652834713459, -0.019616244360804558], [0.004757101647555828, -0.01676560379564762, 0.01830892078578472], [0.004895965568721294, -0.03327905759215355, -0.013184165582060814]], [[-0.0023391898721456528, 0.008053258061408997, -0.0059077441692352295], [-0.0068143075332045555, -0.01728389970958233, -0.014202635735273361], [0.00117807078640908, -0.0025619971565902233, -0.013627022504806519]], [[0.0004895784659311175, 0.004457013215869665, -0.0077658710069954395], [0.003863620338961482, 0.004374966491013765, -0.02079225517809391], [-0.009570766240358353, -0.008931146003305912, -0.020522767677903175]], [[0.0037834264803677797, -0.003458145074546337, -0.008061358705163002], [0.009088709950447083, 0.0035445443354547024, -0.00957189965993166], [0.006416259799152613, -0.006821698974817991, -0.010351958684623241]], [[0.012798930518329144, 0.012642384506762028, 0.0015260132495313883], [-0.005043909419327974, -0.00723382830619812, -0.012594830244779587], [0.02003982663154602, 0.005290482193231583, -0.001525379135273397]], [[0.0020209988579154015, -0.0009547598310746253, 0.01608719862997532], [0.0009924803161993623, -0.00827836338430643, 0.028535673394799232], [-0.0028094102162867785, -0.005473082885146141, 0.012332838028669357]], [[-0.0017333624418824911, 0.03502582386136055, 0.03874325752258301], [-0.02300347201526165, -0.017219552770256996, -0.018483038991689682], [-0.001997545827180147, -0.01565912365913391, 0.000991425127722323]], [[-0.004001720808446407, -0.05987081304192543, -0.028849463909864426], [0.017199233174324036, -0.05870334804058075, -0.06619847565889359], [0.01745080016553402, -0.034225914627313614, -0.07653292268514633]], [[0.01884644478559494, 0.005486176814883947, -0.0027835958171635866], [0.03692074120044708, -0.006818410009145737, 0.01615564152598381], [0.02382258139550686, -0.0025782412849366665, -0.00500171072781086]], [[0.004520919639617205, -0.010815334506332874, 0.0054826694540679455], [-0.0035519476514309645, -0.009736519306898117, -0.008904804475605488], [-0.00216955179348588, -0.007224499713629484, -0.0017199137946590781]], [[0.005789301358163357, -0.011560261249542236, -0.01878989301621914], [0.008280504494905472, 0.03693729266524315, 0.005891729611903429], [0.015540272928774357, 0.01182914711534977, 0.017756499350070953]], [[-0.0014366033719852567, 0.034231532365083694, 0.020283520221710205], [-0.011988102458417416, -0.009937486611306667, 0.019421828910708427], [-0.0008741393685340881, -0.03501665219664574, -0.01318367850035429]], [[0.009918486699461937, 0.048466674983501434, 0.0136943981051445], [0.006418219301849604, 0.06138633191585541, 0.04446592926979065], [-0.02330446057021618, -0.008718647062778473, 0.03343440592288971]], [[0.034480176866054535, 3.8254682294791564e-05, 0.016189588233828545], [0.012713953852653503, -0.015643421560525894, -0.005395194515585899], [0.013591712340712547, -0.020052814856171608, -0.028003189712762833]], [[0.0022053485736250877, -0.005334861576557159, 0.027969399467110634], [0.03254670277237892, 0.020646464079618454, 0.01623016782104969], [0.0169355571269989, 0.05126358941197395, 0.017535733059048653]], [[-0.018864959478378296, -0.008596846833825111, 0.01526609342545271], [-0.006042565684765577, -0.029054775834083557, -0.012412787415087223], [0.034451838582754135, -0.006018306128680706, -0.019319873303174973]], [[-0.007989604957401752, -0.015957007184624672, -0.006121426820755005], [-0.010111620649695396, -0.007409079000353813, -0.006520896218717098], [0.012050827033817768, -0.011671388521790504, -0.017137153074145317]], [[-0.006448990665376186, 0.006784217897802591, -0.01066733431071043], [-0.009428855963051319, 0.015116715803742409, -0.007020832505077124], [-0.0058636534959077835, 0.024784540757536888, 0.03917594626545906]], [[-0.0158421378582716, -0.006691785994917154, 0.015487824566662312], [-0.020426852628588676, -0.005056551657617092, 0.021974610164761543], [-0.02252637781202793, -0.022296670824289322, -0.02902805246412754]], [[-0.00560619356110692, -0.031674824655056, -0.044350992888212204], [0.012515928596258163, -0.021184299141168594, -0.03389638289809227], [0.035058896988630295, 0.010872065089643002, -0.00768490182235837]], [[-0.014698741026222706, -0.009597660042345524, 0.016466882079839706], [0.025996580719947815, 0.010196862742304802, -0.021791059523820877], [-0.003570443019270897, 0.00874454714357853, -0.0036713758017867804]], [[-0.012821055948734283, -0.004069358576089144, -0.02147088199853897], [-0.021327387541532516, 0.0017364551313221455, -0.020521407946944237], [-0.00939834862947464, -0.011962191201746464, -0.017753247171640396]], [[-0.005143303424119949, 0.028996780514717102, 0.04411093890666962], [-0.018044009804725647, -0.010875250212848186, -0.032988764345645905], [-0.005621622316539288, -0.005375274457037449, -0.025921445339918137]], [[-0.012234160676598549, 0.030945826321840286, -0.019034989178180695], [-0.021895939484238625, 0.0067057982087135315, 0.03751497343182564], [-0.026037488132715225, -0.03378096967935562, 0.0007135423948056996]], [[0.02991117537021637, 0.014269516803324223, -0.014929753728210926], [-0.004754144698381424, 0.033945415169000626, -0.007052550558000803], [-0.040022529661655426, -0.022638773545622826, 0.04435117542743683]], [[-0.00430066604167223, -0.012475471943616867, -0.015166021883487701], [0.0026075069326907396, -0.0005047657177783549, -0.028152991086244583], [-0.013676933012902737, 0.008213868364691734, -0.016186589375138283]], [[-0.009325256571173668, -0.008409296162426472, 0.013454537838697433], [-0.015144587494432926, 0.006099870894104242, 0.017662925645709038], [-0.02954726479947567, -0.010861361399292946, -0.011157266795635223]], [[-0.006110212299972773, -0.018386848270893097, 0.008891889825463295], [0.024459775537252426, 0.0015216297470033169, -0.014621572569012642], [0.017375962808728218, 0.06027597561478615, -0.009277024306356907]], [[0.01181347668170929, -0.0013412964763119817, -0.010186703875660896], [-0.007652782369405031, -0.001871824380941689, -0.0048831189051270485], [-0.008038956671953201, 0.0023293530102819204, 0.015503454953432083]], [[0.003210882656276226, -0.00321823894046247, 0.008185504004359245], [0.0024121419992297888, -0.0019271038472652435, 0.014114068821072578], [-0.013478830456733704, 0.005575832445174456, 0.016672085970640182]], [[-0.012359388172626495, -0.009309831075370312, -0.017437748610973358], [-0.005452559795230627, -0.0044109714217484, -0.014686724171042442], [-0.005965550430119038, -0.006427179556339979, -0.011794626712799072]], [[0.0023177783004939556, 0.011575375683605671, -0.0017484888667240739], [-0.00418357877060771, 0.0017599985003471375, 0.02434254065155983], [0.003249540226534009, 0.005283158738166094, 0.011237017810344696]], [[0.019129015505313873, -0.015272258780896664, 0.029886482283473015], [0.01014585979282856, -0.008433210663497448, 0.0036618132144212723], [0.003033402841538191, -0.005324254743754864, -0.011775219812989235]], [[-0.013628682121634483, 0.029266946017742157, 0.0017550989286974072], [-0.018718942999839783, 0.017129462212324142, -0.0028153411112725735], [-0.015004048123955727, 0.0038747256621718407, 0.021419646218419075]], [[-0.011953692883253098, -0.0035940129309892654, -0.00945196207612753], [-0.0014821554068475962, 0.0036461264826357365, -0.010993637144565582], [0.0034002335742115974, -0.006243845447897911, 0.016722040250897408]], [[-0.020938215777277946, -0.017120951786637306, -0.00374159449711442], [0.0024538575671613216, -0.009696638211607933, 0.010511164553463459], [-0.014228703454136848, -0.027001747861504555, -0.01121044997125864]], [[-0.005732804536819458, -0.027758073061704636, 0.012079945765435696], [0.009328439831733704, 0.014225711114704609, -0.01633281633257866], [-0.018548082560300827, 0.03608553484082222, 0.0025894211139529943]], [[-0.003028899896889925, -0.015933705493807793, -0.017415978014469147], [0.01972089894115925, 0.07382409274578094, 0.04806159809231758], [-0.0032510815653949976, 0.061722300946712494, 0.0693301111459732]], [[-0.012814135290682316, 0.029125452041625977, 0.05429825931787491], [-0.025662293657660484, 0.007946939207613468, 0.031919948756694794], [-0.015161857940256596, -0.01418675109744072, 0.02064325101673603]], [[0.010214013047516346, -0.026463771238923073, -0.0372929610311985], [-0.004321933723986149, -0.036145079880952835, -0.032584160566329956], [0.015429495833814144, -0.01296077948063612, -0.02864852547645569]], [[-0.00327589875087142, -0.015476341359317303, -0.011743733659386635], [-0.012064087204635143, -0.03843158856034279, -0.01803506538271904], [-0.000584532564971596, -0.017766820266842842, -0.005866152700036764]], [[0.02848205156624317, 0.0008283752831630409, -0.0023902247194200754], [-0.007956956513226032, 0.01225881278514862, 0.013319520279765129], [0.016071390360593796, 0.013502468355000019, -0.005128057207912207]], [[-0.022454874590039253, -0.01623995415866375, -0.020231658592820168], [0.01680980622768402, 0.02200492098927498, -0.002377375029027462], [-0.015199006535112858, 0.05125682055950165, -0.01116095669567585]], [[0.010648653842508793, -0.008017498068511486, 0.014755310490727425], [0.007358311675488949, -0.0037950128316879272, -0.01340576633810997], [-0.006199268624186516, -0.003752971300855279, -0.00336324330419302]], [[-0.008326753042638302, 0.019718989729881287, 0.008708967827260494], [-0.01749577932059765, 0.015343504957854748, 0.004450897686183453], [-0.02526676654815674, -0.014724739827215672, -0.002953869756311178]], [[-0.004913807846605778, 0.006791110150516033, 0.0015264519024640322], [-0.011921706609427929, 0.0016531471628695726, 0.020213982090353966], [-0.019957566633820534, -0.008625522255897522, -0.0017704287311062217]], [[-0.022156059741973877, -0.044002700597047806, -0.06735601276159286], [-0.017197299748659134, 0.0030259457416832447, -0.005192874930799007], [-0.021668491885066032, -0.003943721763789654, 0.012189804576337337]], [[-0.023227278143167496, -0.03321901336312294, -0.0074056824669241905], [-0.00426826998591423, -0.01741548627614975, 0.010426384396851063], [0.0027060771826654673, 0.017618756741285324, 0.016372796148061752]], [[0.00363737135194242, 0.010913957841694355, 0.01828358881175518], [-0.012812348082661629, -0.001877922099083662, 0.012229055166244507], [-0.007119792979210615, -0.0033485684543848038, -0.005733029916882515]], [[0.009896467439830303, 0.0006712107569910586, 0.019031021744012833], [0.004749957472085953, 0.02577570453286171, 0.08247525244951248], [-0.010020344518125057, -0.006296273786574602, 0.041575249284505844]], [[0.014034061692655087, -0.04068886116147041, -0.03000328689813614], [0.016176871955394745, 0.005447630770504475, -0.006925097666680813], [0.01847667805850506, 0.032415471971035004, 0.018050163984298706]], [[-0.009105851873755455, 0.004162471741437912, 0.004494162276387215], [-0.010477791540324688, 0.003159614047035575, 0.0026056524366140366], [-0.016829924657940865, -0.013009010814130306, -0.011770852841436863]], [[0.0035237795673310757, -0.012873712927103043, 0.018258653581142426], [-0.004529006779193878, -0.01191644836217165, -0.003854252165183425], [-0.0019470668630674481, -0.004323466680943966, -0.003383070230484009]], [[-0.0062223756685853004, -0.052910517901182175, -0.001391643425449729], [-0.007397892419248819, -0.05925469100475311, -0.014924823306500912], [0.007063095457851887, -0.020455164834856987, -0.022962860763072968]], [[-0.00986095517873764, -0.0032296732533723116, 0.004474337212741375], [-0.004573739133775234, 0.005585286300629377, 0.002150928135961294], [-0.0033523263409733772, -0.013513218611478806, -0.01839686743915081]], [[-0.018267692998051643, -0.008553098887205124, -0.014112323522567749], [-0.006040188949555159, -0.012685224413871765, -0.019172467291355133], [-0.009870355948805809, -0.003022243967279792, -0.022039305418729782]], [[-0.012389476411044598, -0.031735729426145554, -0.011007056571543217], [-0.016752930358052254, -0.016323652118444443, -0.021691622212529182], [0.03146989271044731, 0.01086900569498539, 0.0034490693360567093]], [[-0.00973666924983263, 0.013994967564940453, -0.011677384376525879], [-0.034444794058799744, -0.03845250606536865, -0.027455206960439682], [-0.006616980768740177, -0.014790396206080914, -0.027845952659845352]], [[-0.015603178180754185, -0.016180550679564476, -0.007579289376735687], [0.008093250915408134, -0.026624102145433426, -0.007086911238729954], [0.010770629160106182, -0.007617567665874958, -0.013872180134057999]], [[-0.017681872472167015, -0.010317569598555565, 0.011131526902318], [-0.005578621756285429, -0.007747119292616844, -0.006142395082861185], [-0.0249960757791996, -0.017593787983059883, -0.00896744430065155]], [[-0.005460480693727732, -0.017162716016173363, -0.013833636417984962], [-0.020353620871901512, -0.014681955799460411, -0.003938581794500351], [-0.010800248011946678, -0.008887174539268017, -0.011765358969569206]], [[0.0012102259788662195, 0.01627308875322342, -0.0005690040998160839], [-0.007244402077049017, 0.0026133370120078325, 0.0072985547594726086], [0.005385302007198334, 0.0031841180752962828, -0.023339617997407913]], [[-0.009137941524386406, 0.0014426695415750146, 0.006854207254946232], [-0.01656986214220524, -0.028104759752750397, -0.005918631795793772], [-0.02132374234497547, -0.01601228676736355, -0.029715118929743767]], [[0.007700199261307716, 0.0015809714095667005, 0.007310188841074705], [-0.010727407410740852, -0.022694051265716553, -0.004247977863997221], [-0.0012741851387545466, 0.00389559892937541, -0.018616633489727974]], [[0.0185697041451931, 0.03937526419758797, -0.020974628627300262], [0.016698746010661125, 0.059230804443359375, 0.02069038711488247], [-0.011118143796920776, 0.0072997803799808025, 0.0577920563519001]], [[-0.009677423164248466, 0.020799515768885612, -0.014421376399695873], [-0.0007339969160966575, 0.008357349783182144, 0.006539244204759598], [-0.014240131713449955, -0.009172091260552406, 0.0097641097381711]], [[-0.0076799774542450905, 0.012668448500335217, -0.0078090461902320385], [0.005560143850743771, 0.023209011182188988, 0.017997805029153824], [0.0003265170962549746, -0.017824051901698112, 0.051674433052539825]], [[0.0005548131302930415, -0.0005199091974645853, 0.028141338378190994], [0.012304957024753094, -0.0055100396275520325, -0.0024284636601805687], [0.03831525146961212, -0.00014676706632599235, -0.009948736988008022]], [[0.011115951463580132, 0.013500215485692024, -0.011771817691624165], [0.014480493031442165, 0.029322203248739243, -0.016831910237669945], [0.0029946330469101667, 0.03746253252029419, 0.011555316857993603]], [[0.007130156271159649, -0.01437192503362894, -0.017158769071102142], [0.009605195373296738, -0.00386641058139503, -0.022818423807621002], [0.01102070976048708, 0.005647555459290743, 0.011778813786804676]], [[0.0034903590567409992, -0.023190775886178017, -0.005618191324174404], [0.010013023391366005, -0.004322271794080734, 0.009540332481265068], [-0.02082357555627823, -0.02742360532283783, 0.0038304501213133335]], [[-0.008888221345841885, 0.01322702132165432, -0.009171001613140106], [-0.015960896387696266, -0.01050479058176279, 0.018103312700986862], [0.016643842682242393, -0.008374746888875961, -0.009563245810568333]], [[-0.027012348175048828, -0.008861912414431572, 0.01112578809261322], [-0.016798950731754303, -0.02337232418358326, -0.018564263358712196], [0.004193655680865049, -0.020805014297366142, -0.026651987805962563]], [[0.010567463003098965, -0.006898613180965185, -0.02176785096526146], [0.012110532261431217, 0.001365236472338438, 0.0062237996608018875], [0.0037779416888952255, 0.007049534935504198, 0.0012635828461498022]], [[0.0015627944376319647, 0.004062457475811243, 0.02694849669933319], [-0.021240750327706337, 0.05942228063941002, 0.008610878139734268], [-0.012552066706120968, 0.0019794520922005177, 0.022005395963788033]], [[0.01842472516000271, 0.004231591243296862, -0.007937829941511154], [-0.018352586776018143, -0.022906454280018806, 0.01421442348510027], [-0.00829366222023964, -0.01886238530278206, -0.008853154256939888]], [[-0.02581081911921501, -0.03852785751223564, -0.0031160381622612476], [0.0012992944102734327, -0.04050466790795326, -0.027646563947200775], [0.025374535471200943, -0.0036109203938394785, -0.027193043380975723]], [[0.000572014250792563, 0.012310715392231941, 0.02696320228278637], [-0.004902360029518604, -0.0006395037053152919, 0.021796327084302902], [-0.002851163735613227, -0.01704728975892067, -0.013922970741987228]], [[0.012145167216658592, 0.003717589657753706, 0.01179868821054697], [0.03350626677274704, 0.005994006991386414, 0.011776413768529892], [0.011523224413394928, 0.02186042070388794, 0.02073190174996853]], [[-0.008603346534073353, -0.014581131748855114, -0.015613998286426067], [-0.004560558591037989, 0.0035368246026337147, -0.010055413469672203], [0.011956373229622841, -0.010550962761044502, -0.04673563316464424]], [[-0.005528016947209835, -0.023724354803562164, -0.014030955731868744], [-0.0010860005859285593, 0.007471034303307533, 0.0025163344107568264], [0.0010129328584298491, -0.018460437655448914, -0.01627996936440468]], [[-0.008034939877688885, -0.011653014458715916, -0.018022071570158005], [0.015722932294011116, -0.028222860768437386, -0.0064189014956355095], [0.036140307784080505, -0.0022698608227074146, 0.0032154174987226725]], [[0.0014555685920640826, -0.023456333205103874, -0.020111480727791786], [0.05966859683394432, -0.018349947407841682, -0.02419014275074005], [0.038702256977558136, 0.04723397642374039, -0.011734931729733944]], [[-0.009204717352986336, -0.012138274498283863, 0.005334128625690937], [-0.018030241131782532, -0.019872108474373817, -0.009054179303348064], [-0.008370662108063698, -0.0020243453327566385, -0.03233402222394943]], [[-0.01129718404263258, -0.022225452587008476, -0.004027837421745062], [-0.013130243867635727, -0.02982136979699135, -0.012037633918225765], [-0.002132899360731244, -0.036300476640462875, -0.007340204901993275]], [[0.02699294127523899, 0.016271136701107025, -0.006242920644581318], [0.018775125965476036, 0.005503651686012745, -0.016037583351135254], [0.006011994555592537, 0.00503761088475585, -0.021158041432499886]], [[0.020089754834771156, 0.0035596720408648252, -0.014842159114778042], [0.03488241508603096, 0.006101405713707209, -0.03093942627310753], [0.00014473988267127424, 0.0736909881234169, 0.012538043782114983]], [[-0.013539141975343227, -0.0036990433000028133, 0.005672143772244453], [-0.02035481296479702, -0.005956397391855717, -0.01623568870127201], [-0.010079405270516872, -0.014123722910881042, -0.019542552530765533]], [[0.015434369444847107, -0.007798542734235525, -0.006918019615113735], [0.0023241795133799314, 0.0029968535527586937, -0.009615158662199974], [-0.0236517321318388, -0.025593167170882225, -0.014322935603559017]], [[-0.013809583149850368, -0.005010094027966261, -0.01430471520870924], [-0.004244181327521801, -0.005673900246620178, -0.01554996520280838], [0.004045215900987387, -0.006259702146053314, -0.01027709897607565]], [[0.0016141090309247375, -0.007532687857747078, 0.01619962602853775], [-0.006603811401873827, -0.006393827497959137, 0.002141957636922598], [-0.005527880508452654, -0.022998254746198654, 0.002278620842844248]], [[-0.008024871349334717, 0.014621807262301445, 0.024938108399510384], [0.0013716962421312928, 0.004201431293040514, 0.012610606849193573], [0.007975229993462563, 0.004121087491512299, -0.020241837948560715]], [[-0.018290018662810326, 0.002388646826148033, 0.010184591636061668], [0.010973525233566761, -0.009356504306197166, 0.022534353658556938], [-0.009097940288484097, 0.0018508847570046782, 0.0010269788326695561]], [[0.007594149559736252, -0.011841604486107826, -0.03636183217167854], [0.020141400396823883, -0.01429672073572874, -0.026432299986481667], [0.011624744161963463, -0.003762204898521304, -0.018768418580293655]], [[-0.005124243907630444, -0.019868474453687668, -0.013090377673506737], [-0.0102944141253829, -0.012098763138055801, -0.016063015908002853], [-0.02859705314040184, 0.010681597515940666, 0.009652411565184593]], [[-0.008774954825639725, -0.02506399154663086, -0.02838246524333954], [0.01996825449168682, -0.015181371010839939, -0.030601151287555695], [0.017686089500784874, -0.007115948013961315, -0.006327814422547817]], [[-0.040473852306604385, -0.002600947627797723, -0.0028059068135917187], [-0.009174752980470657, -0.03061896748840809, -0.01308104395866394], [0.009116937406361103, -0.01849241741001606, -0.012666258960962296]], [[-0.019826218485832214, -0.03382496535778046, -0.027044136077165604], [-0.002591746859252453, 0.0026495782658457756, 0.017566511407494545], [0.027082886546850204, 0.018894357606768608, 0.02267760969698429]], [[-0.004833647515624762, 0.0030984235927462578, 0.0007367325015366077], [-0.007579358760267496, 0.003475307021290064, 0.012465420179069042], [-0.03155812621116638, -0.018734965473413467, -0.0015880292048677802]], [[-0.011910749599337578, -0.008524268865585327, 0.019558969885110855], [-0.0235624760389328, -0.01745956763625145, 0.001274307258427143], [0.009087372571229935, -0.017939049750566483, -0.008986670523881912]], [[-0.00030053875525482, 0.0022714242804795504, -0.007936451584100723], [0.016257068142294884, -0.020160986110568047, -0.009110932238399982], [0.025074249133467674, 0.002575020305812359, 0.004985620733350515]], [[-0.017619600519537926, 0.007331867702305317, 0.014794944785535336], [-0.0070619843900203705, 0.004277436062693596, 0.016321515664458275], [-0.01421261951327324, -0.004685960244387388, -0.004922696389257908]], [[-0.006688905414193869, 0.00965389609336853, 0.0029130096081644297], [-0.02387436293065548, 0.0035973775666207075, -0.009531024843454361], [-0.015347195789217949, 0.0063615040853619576, 0.0038273718673735857]], [[-0.0009480210137553513, 0.00027846277225762606, -0.027608072385191917], [-0.013253757730126381, -0.0031705894507467747, 0.009142205119132996], [-0.001682378351688385, -0.005994750652462244, -0.0065351142548024654]], [[-0.016629338264465332, -0.020530959591269493, -0.0039945137687027454], [-0.013074501417577267, -0.019774412736296654, -0.023352567106485367], [0.0035249986685812473, 0.009254367090761662, -0.02997548319399357]], [[0.015843141824007034, 0.01049288734793663, 0.033273935317993164], [-0.017466897144913673, 0.004483738448470831, -0.0070848106406629086], [-0.03270847350358963, -0.01082594133913517, 0.004382283892482519]], [[0.005209565628319979, -0.0071683707647025585, -0.028050003573298454], [-0.00217170687392354, -0.003670890349894762, -0.01892964169383049], [0.004348365124315023, -0.006826304830610752, -0.008386831730604172]], [[0.025249656289815903, 0.028074074536561966, 0.0029584569856524467], [-0.0035532512702047825, 0.02927873469889164, 0.0208696648478508], [-0.0019612114410847425, -0.009909586049616337, 0.007587163243442774]], [[9.029111242853105e-05, -0.039544135332107544, -0.054886192083358765], [0.002515486441552639, -0.03255123272538185, -0.0283666979521513], [0.010746534913778305, 0.009303620085120201, -0.006333515979349613]], [[0.015033786185085773, -0.015355189330875874, -0.02268633432686329], [0.01571531593799591, 0.0199590977281332, -0.017923710867762566], [-0.03075975924730301, 0.05417588725686073, 0.013600770384073257]], [[-0.0009393239743076265, 0.012941145338118076, -0.0060638971626758575], [-0.013802309520542622, 0.0066481116227805614, -0.008003325201570988], [-0.0074192918837070465, 0.01371778454631567, -0.0004255634266883135]], [[-0.008042622357606888, -0.006130946334451437, 0.004830894060432911], [0.026628956198692322, -0.023075459524989128, -0.005967849865555763], [0.010741209611296654, 0.019162947311997414, -0.0027565222699195147]], [[-0.008898897096514702, -0.0002571837685536593, -0.006408993620425463], [-0.005045984871685505, -0.04092041403055191, -0.00744708813726902], [0.011998984962701797, -0.013414649292826653, -0.004210603889077902]], [[-0.009477633982896805, 0.008198564872145653, 0.008636478334665298], [-0.0070152743719518185, 0.03043377585709095, 0.01795547641813755], [-0.004338728729635477, 0.00194230314809829, 0.020459609106183052]], [[-0.00945234950631857, -0.023156912997364998, -0.0094221793115139], [-0.010829577222466469, -0.01104968786239624, -0.005402631126344204], [-0.023714112117886543, -0.02765422686934471, -0.013365139253437519]], [[-0.008140644989907742, 0.017317211255431175, 0.008229825645685196], [-0.01724100112915039, -0.016076799482107162, 0.0035575053188949823], [0.004694120027124882, -0.00754175940528512, -0.016678890213370323]], [[0.00889288168400526, -0.0074879201129078865, 0.004102138802409172], [-0.020104851573705673, -0.01573655568063259, -0.004784757737070322], [-0.008107805624604225, -0.0014078543754294515, -0.018075866624712944]], [[-0.019710548222064972, -0.041963476687669754, -0.029270965605974197], [-0.0010093876626342535, -0.006267245393246412, 0.02304777503013611], [0.0008501632255502045, 0.005395305342972279, 0.026045862585306168]], [[0.010612796992063522, 0.005994532257318497, -0.01140761561691761], [0.01755371131002903, -0.005357702262699604, -0.0011884825071319938], [-0.004010392352938652, -0.004667729139328003, -0.014756600372493267]], [[-0.0170547217130661, -0.020305484533309937, -0.004277010913938284], [-0.0060331327840685844, 0.009438369423151016, 0.0003823373408522457], [-0.014273712411522865, -0.01585756614804268, -0.012529064901173115]], [[-0.004210909828543663, -0.0018280576914548874, 0.019101250916719437], [0.000777145498432219, -0.007905233651399612, 0.012927139177918434], [0.0046812864020466805, 0.011235074140131474, 0.007387444842606783]], [[0.025986086577177048, -0.0029557866510003805, 0.0008338192128576338], [0.04212271049618721, 0.044297829270362854, -0.007905322127044201], [0.00679422914981842, 0.07247261703014374, 0.02390449121594429]], [[-0.015689115971326828, 0.009423024952411652, 0.01226873230189085], [-0.00443724449723959, 0.002415009308606386, 0.003289442276582122], [-0.0020902047399431467, -0.015232480131089687, -0.01069343090057373]], [[-0.012366040609776974, -0.0021677962504327297, -0.008441722020506859], [0.02069879323244095, -0.012823917903006077, -0.01620684191584587], [-0.010308453813195229, -0.00857102032750845, -0.014825908467173576]], [[0.018848218023777008, 0.012055141851305962, 0.01795276254415512], [-0.004865510854870081, -0.0009274445474147797, 0.020220570266246796], [0.004704493563622236, 0.0008174807298928499, -0.006527349818497896]], [[-0.002405403880402446, -0.01576828397810459, 0.0008106301538646221], [0.01542567741125822, -0.008930984884500504, -0.01911427639424801], [-0.0033051560167223215, -0.023949356749653816, -0.021797925233840942]], [[-0.02712504006922245, -0.017710046842694283, 0.005666134413331747], [-0.023489167913794518, -0.027439573779702187, -0.009430008009076118], [0.00687270425260067, -0.0031858300790190697, -0.022925497964024544]], [[-0.01729782298207283, -0.01045722234994173, -0.033015262335538864], [-0.011602426879107952, 0.004642704501748085, 0.004130506422370672], [-0.008713151328265667, -0.013844875618815422, -0.0030982322059571743]], [[-0.013647977262735367, -0.013424690812826157, 0.006964411586523056], [-0.020284246653318405, -0.017064983025193214, -0.01085582748055458], [0.0057440330274403095, -0.0071719372645020485, -0.03871084377169609]], [[0.0004961207159794867, 5.1823393732775e-05, -0.005565479397773743], [0.010565008036792278, -0.010029461234807968, -0.01779022626578808], [0.015091937966644764, -0.020947875455021858, -0.020150184631347656]], [[0.008157986216247082, 0.021394867449998856, 0.01963840238749981], [-0.003058948554098606, 0.006098571233451366, 0.03299923613667488], [0.008768473751842976, -0.008912279270589352, 0.005029479041695595]], [[-8.642210741527379e-05, -0.01678561605513096, -0.03849365562200546], [-0.024003736674785614, -0.016364358365535736, 0.004386827349662781], [-0.0029698472935706377, -0.010838929563760757, 0.010096261277794838]], [[-0.008636627346277237, -0.014798596501350403, -0.011039293371140957], [0.003215072676539421, 0.02173401415348053, 0.027958158403635025], [-0.01702425628900528, 0.020069604739546776, 0.016509076580405235]], [[0.01216023601591587, -0.007792800199240446, 0.0002853896876331419], [0.016363032162189484, -0.011926311999559402, -0.013122567906975746], [0.008661583997309208, 0.00842799711972475, -0.01180069986730814]], [[0.023492027074098587, -0.011323683895170689, -0.012325109913945198], [0.02676890231668949, 0.04449046775698662, -0.026556115597486496], [-0.018130749464035034, 0.036564577370882034, 0.0023898067884147167]], [[-0.011158710345625877, -0.01631160080432892, -0.01650434546172619], [0.000985391205176711, -0.01701272837817669, -0.030953945592045784], [-0.009524650871753693, -0.0018953694961965084, -0.006129298824816942]], [[-0.0015657877083867788, -0.02399124763906002, -0.038427237421274185], [0.008911626413464546, -0.02193433605134487, -0.04081397131085396], [0.0029152799397706985, -0.0011504519497975707, -0.013421998359262943]]]}
{"bias": -0.0035027118865400553, "layer": "conv1", "i": 1, "weights": [[[-0.003191028255969286, -0.006067550741136074, -0.009802721440792084], [-0.0018239866476505995, -0.01884768158197403, -0.011467043310403824], [0.00971169862896204, -0.019061453640460968, -0.013880875892937183]], [[-0.006169371772557497, -0.008744947612285614, -0.03409760817885399], [-0.019945476204156876, -0.03391153737902641, -0.04660498723387718], [-0.010793961584568024, -0.010764386504888535, -0.01309386920183897]], [[-0.022057538852095604, -0.01927722804248333, -0.005088679026812315], [-0.022041648626327515, -0.01979990117251873, -0.020163316279649734], [-0.004942446947097778, -0.003273503854870796, 0.005190386436879635]], [[-0.005642564967274666, -0.012205112725496292, -0.013907546177506447], [-0.002390598878264427, -0.010864929296076298, -0.015287295915186405], [-0.012500664219260216, -0.007017375901341438, -0.0010431342525407672]], [[-0.01260738167911768, -0.009464232251048088, -0.01060539297759533], [-0.034329477697610855, -0.020113639533519745, -0.02993790991604328], [-0.03071199171245098, -0.03564451262354851, -0.018437175080180168]], [[-0.01386911328881979, -0.013367079198360443, -0.013566812500357628], [0.005173272918909788, 0.005062734708189964, -0.013156695291399956], [0.03437500074505806, 0.011045434512197971, 0.00792641006410122]], [[-0.008314761333167553, -0.023061219602823257, -0.008899047039449215], [-0.006920844316482544, -0.016039995476603508, 0.0006581184570677578], [-0.003050929633900523, -0.012872535735368729, -0.008135156705975533]], [[-0.009995998814702034, -0.03745335340499878, -0.007864437066018581], [-0.016454366967082024, -0.028911994770169258, -0.006110554561018944], [-0.01288464292883873, -0.02974742278456688, -0.018029820173978806]], [[-0.005209397990256548, -0.008189953863620758, -0.00875844806432724], [-0.016259649768471718, 0.001170980161987245, 0.006037517450749874], [-0.007857472635805607, 0.004172566346824169, 0.006749383639544249]], [[-0.017502205446362495, -0.011186633259057999, -0.0021097357384860516], [-0.018426045775413513, -0.020148880779743195, -0.008155046962201595], [-0.01750745251774788, -0.01691145822405815, -0.006707020569592714]], [[0.04042338952422142, 0.034175243228673935, 0.033186279237270355], [0.05242709070444107, 0.08723665773868561, 0.06391073018312454], [0.025920415297150612, 0.08711639791727066, 0.09939440339803696]], [[-0.003501929808408022, -0.011128276586532593, -0.01861807331442833], [-0.013170831836760044, -0.023410530760884285, -0.02302405796945095], [-0.01063306350260973, -0.00841915886849165, -0.015214657410979271]], [[0.0044215708039700985, 0.013189392164349556, 0.029966620728373528], [-0.010893325321376324, -0.010077808983623981, 0.009166666306555271], [0.0065267933532595634, -0.001953504513949156, 0.009660248644649982]], [[0.005923667456954718, 0.0016797907883301377, -0.009316233918070793], [0.024797962978482246, 0.011428914964199066, -0.006320505868643522], [-0.01003307942301035, -0.0017741374904289842, -0.016662145033478737]], [[-0.0048747616820037365, -0.006242386996746063, 0.0037024386692792177], [-0.02411896176636219, -0.03175874799489975, -0.011549378745257854], [-0.009194104000926018, -0.016340220347046852, -0.005659225396811962]], [[0.013455239124596119, 0.006880135741084814, 0.0006339419051073492], [-0.005185700953006744, -0.008127626962959766, 0.0014322411734610796], [-0.007052095606923103, -0.010274073109030724, 0.013282893225550652]], [[-0.002627842128276825, 0.006189451087266207, 0.003821444232016802], [0.01173622440546751, 0.02960817702114582, -0.014485843479633331], [0.0008239484159275889, 0.009185278788208961, 0.006310810334980488]], [[-0.004247585311532021, -0.008688366040587425, -0.013773078098893166], [-0.007680155802518129, 0.0008633254328742623, -0.009768825024366379], [-0.002933815121650696, 0.0020431308075785637, 0.005380556453019381]], [[-0.021586857736110687, -0.012890844605863094, -0.013419968076050282], [-0.021272430196404457, -0.012236084789037704, -0.005968546494841576], [-0.008381991647183895, -0.00838721264153719, -0.010405777022242546]], [[0.007425906136631966, -0.0017845856491476297, -0.007259678095579147], [0.003354037180542946, -0.018002841621637344, -0.015367604792118073], [0.009742775931954384, -0.004492290783673525, -0.0024488545022904873]], [[-0.02990730293095112, -0.021337782964110374, 0.001420317916199565], [-0.02014751173555851, -0.021976087242364883, -0.006795755587518215], [-0.01298834104090929, -0.002378921490162611, 0.005262562073767185]], [[-0.01057977881282568, -0.021209487691521645, -0.022066377103328705], [-0.0020464889239519835, -0.009382282383739948, -0.007257182151079178], [0.01587165705859661, 0.012995338067412376, 0.004330122843384743]], [[0.023903140798211098, 0.01011465210467577, -0.003052621381357312], [0.017744259908795357, 0.010071530006825924, 0.016997916623950005], [0.039536796510219574, 0.021941576153039932, 0.0032630523201078176]], [[-0.003563436446711421, -0.017712656408548355, -0.003788021160289645], [-0.010378865525126457, -0.025404298678040504, -0.0029257687274366617], [-0.009463990107178688, -0.03225259110331535, -0.001043783500790596]], [[-0.006917577236890793, 0.0019013453274965286, 0.004316899459809065], [-0.003725506365299225, -0.006275516469031572, 0.01830166205763817], [-0.0033433346543461084, -0.015047445893287659, 0.0009966236539185047]], [[-0.030046425759792328, -0.03862398862838745, -0.03277744725346565], [-0.009901328012347221, -0.008783165365457535, -0.035562317818403244], [-0.015329564921557903, -0.01557835377752781, -0.044439490884542465]], [[-0.016226310282945633, -0.007280595600605011, -0.006814929656684399], [-0.0076574962586164474, -0.015045778825879097, -0.007137838751077652], [0.0034493370912969112, 0.013756086118519306, 0.009339902549982071]], [[0.01244310662150383, -0.000585277215577662, 0.007707820739597082], [0.01262771524488926, 0.009964276105165482, 0.005332996603101492], [0.005006236024200916, 0.0029416552279144526, 0.0030617008451372385]], [[-0.0157171543687582, -0.01839623972773552, -0.0041139088571071625], [-0.0023559131659567356, 0.008638041093945503, 1.8176177036366425e-05], [-0.005822910461574793, -0.006454186514019966, 0.012128564529120922]], [[-0.01546472031623125, -0.01002181600779295, -0.005827049724757671], [0.001745609100908041, 0.0024348502047359943, -0.014332977123558521], [-0.012594038620591164, -0.019203130155801773, -0.006913322024047375]], [[-0.008951770141720772, 0.002002693247050047, -0.008768463507294655], [-0.00988806039094925, -0.01969178020954132, -0.0055359527468681335], [-0.0029272562824189663, -0.005754571408033371, -0.02508470229804516]], [[-0.012827022932469845, -0.005689498968422413, -0.0003015359106939286], [0.007172995246946812, -0.010184348560869694, -0.008808729238808155], [-0.014730831608176231, -0.018728896975517273, -0.012416011653840542]], [[-0.00307215447537601, 0.012646096758544445, 0.01303364522755146], [-0.0002744460944086313, 0.013112545013427734, -0.0012111733667552471], [-0.0024532394018024206, 0.024633079767227173, 0.024629054591059685]], [[-0.00921748485416174, -0.0034227357245981693, 0.0037914204876869917], [-0.014976994134485722, -0.01280770543962717, -0.0001956391497515142], [-0.00020886976562906057, 0.00592969311401248, 0.018386218696832657]], [[-0.03203948214650154, -0.011182191781699657, -0.017818881198763847], [-0.011215625330805779, -0.019391747191548347, -0.0013535625766962767], [-0.005296399816870689, -0.008679280988872051, -0.012650229036808014]], [[0.014509141445159912, -0.003975521307438612, -0.0003223895619157702], [-0.0023402979131788015, 0.005033567082136869, 0.012668071314692497], [0.0031508486717939377, -0.004124036058783531, 0.004638003651052713]], [[0.007937380112707615, 0.029270583763718605, 0.011119524948298931], [0.012831155210733414, 0.022187909111380577, 0.019610213115811348], [-0.013549759052693844, -0.0025728195905685425, 0.011367813684046268]], [[-0.001667484873905778, 0.002397727919742465, 0.004206285811960697], [-0.013660206459462643, 0.009998218156397343, -0.019956916570663452], [0.01134581584483385, 0.01913265697658062, -0.018768105655908585]], [[-0.004702889826148748, 0.004932240583002567, 0.032599519938230515], [-0.01568806916475296, -0.008828188292682171, 0.0017873499309644103], [-0.008673363365232944, -0.01667425036430359, -0.007386680692434311]], [[0.02955026924610138, 0.015480331145226955, 0.0013687105383723974], [0.014963050372898579, 0.010410014539957047, 0.01658153161406517], [0.012052258476614952, -0.015262087807059288, -0.010406440123915672]], [[-0.006879910826683044, -0.01915818452835083, -0.006172867026180029], [-0.012607447803020477, -0.012224584817886353, -0.0031754313968122005], [-0.02059018239378929, -0.010435112752020359, -0.010559478774666786]], [[0.00941204372793436, 0.00016612809849902987, 0.007781922817230225], [-0.026385048404335976, -0.0027949013747274876, 0.008733388967812061], [-0.016247142106294632, -0.007042810786515474, -0.002693556947633624]], [[-0.003581952303647995, 0.0014761362690478563, 0.0029744666535407305], [0.0012863558949902654, 0.009345684200525284, 0.024958865717053413], [-0.008053543977439404, -0.011180981993675232, 0.002365671331062913]], [[-0.021227287128567696, -0.03448180854320526, -0.004564107395708561], [-0.02201140858232975, -0.021317794919013977, -0.018302934244275093], [-0.001723480992950499, -0.009256650693714619, -0.01710967719554901]], [[-0.00015364220598712564, -0.004886069800704718, 0.027836814522743225], [-0.003351453226059675, -0.005944551434367895, 0.020021582022309303], [0.0008384744869545102, -0.005497051402926445, 0.005697908811271191]], [[-0.012398744001984596, -0.008380420506000519, 0.004179697483778], [-0.01678886078298092, -0.0015633625444024801, -0.008010315708816051], [-0.01663992553949356, -0.019327150657773018, -0.002243869472295046]], [[0.016698939725756645, -0.004559897352010012, 0.0026001150254160166], [0.009154320694506168, -0.0004001342167612165, -0.027633285149931908], [-0.000980714918114245, -0.004146674182265997, -0.012656007893383503]], [[-0.013670242391526699, -0.018924906849861145, -0.015647418797016144], [-0.024790367111563683, -0.029587941244244576, -0.01956310123205185], [-0.018501074984669685, -0.017002351582050323, -0.015029233880341053]], [[0.0070035094395279884, -0.0017472958425059915, -0.010435626842081547], [0.02251971699297428, 0.01063954271376133, -0.00853868667036295], [0.005415546707808971, -0.003609311766922474, -0.003217635676264763]], [[0.0095304474234581, 0.011057309806346893, -0.01221238449215889], [0.004643748514354229, -0.01363950502127409, -0.012965360656380653], [-0.013345494866371155, -0.03272992745041847, -0.027530238032341003]], [[0.011115980334579945, -0.011978745460510254, -0.007978280074894428], [0.029347047209739685, -0.0009065514313988388, 0.019444677978754044], [0.0029540415853261948, 0.0026151263155043125, 0.0010922059882432222]], [[-0.03567235916852951, -0.038141265511512756, -0.026651538908481598], [-0.03697897866368294, -0.03748726844787598, -0.023856626823544502], [-0.018875502049922943, -0.02690187655389309, -0.024904515594244003]], [[0.04301584139466286, 0.11662305891513824, 0.057728756219148636], [0.026321347802877426, 0.04396263137459755, 0.06040244922041893], [0.02084781602025032, 0.00646192766726017, 0.015958305448293686]], [[0.003375890664756298, -0.00010190775356022641, -0.007045097649097443], [0.009408747777342796, -0.0013971226289868355, -0.008457574993371964], [0.009075330570340157, -0.0018947900971397758, -0.0048491014167666435]], [[0.010178027674555779, -0.009335574693977833, -0.006892290432006121], [0.0022172837052494287, -0.01840372383594513, -0.024617688730359077], [-0.0015301097882911563, -0.009159564971923828, -0.018531478941440582]], [[0.0008799788192845881, -0.004112153314054012, -0.00405495148152113], [0.01557114440947771, 0.0028330073691904545, -0.005896697286516428], [0.00928278174251318, -0.0041659497655928135, -0.0002203920594183728]], [[-0.006354703567922115, 0.0023418741766363382, -0.0008049709722399712], [-0.004555854946374893, -0.007792761083692312, -0.01873246394097805], [-0.00956660881638527, -0.0003014146350324154, -0.01217831950634718]], [[0.011271760798990726, -0.00545572629198432, 0.00481291813775897], [0.012860490009188652, 0.028060894459486008, 0.028776340186595917], [-0.0025568604469299316, 0.02950133942067623, 0.039475373923778534]], [[0.0031018012668937445, 0.0026181908324360847, -0.01369162742048502], [0.027490627020597458, 0.03424277529120445, 0.007119724527001381], [0.0197533518075943, 0.016347356140613556, 0.0016777622513473034]], [[-0.027406077831983566, -0.018905092030763626, -0.023000847548246384], [-0.030443362891674042, -0.016007155179977417, -0.0035811413545161486], [-0.010384821332991123, -0.006742390803992748, 0.0013445650693029165]], [[0.0193779356777668, 0.019088106229901314, -0.013464444316923618], [0.016046589240431786, 0.0649089366197586, 0.03771775960922241], [-0.00047347709187306464, 0.01503438875079155, 0.03903363272547722]], [[-0.012656733393669128, -0.003951856400817633, 0.003535530064254999], [-0.018870461732149124, -0.009086849167943, -0.005001954268664122], [-0.0034077996388077736, -0.010805303230881691, -0.010277161374688148]], [[0.009004305116832256, -0.009515118785202503, -0.004999297671020031], [-0.010752718895673752, -0.007738069165498018, -0.0077743129804730415], [0.003117932938039303, 0.006945097353309393, -0.02035159431397915]], [[0.018529701977968216, 0.009948926977813244, -0.0033997930586338043], [0.02408091351389885, 0.013560122810304165, 0.002956666285172105], [0.003826191183179617, -0.0014387057162821293, 0.005640394054353237]], [[0.009824992157518864, -0.013023694977164268, -0.006424819119274616], [0.017395595088601112, 0.00018836888193618506, -0.004014978650957346], [0.024249747395515442, 0.021230943500995636, 0.017409663647413254]], [[0.021313399076461792, 0.011786188930273056, -0.011182413436472416], [0.031338926404714584, 0.06096914783120155, 0.009987401776015759], [0.02100236527621746, 0.01871395669877529, 0.013353701680898666]], [[-0.012376484461128712, -0.039216507226228714, -0.040779054164886475], [-0.016894415020942688, -0.026040170341730118, -0.03036687709391117], [-0.01862918958067894, -0.02366131916642189, -0.02410339191555977]], [[0.07521628588438034, 0.0491606630384922, 0.017549360170960426], [0.06545760482549667, 0.06642471253871918, 0.029307343065738678], [0.04001853987574577, 0.03630439564585686, 0.02765296772122383]], [[0.006423034705221653, -0.02637551911175251, 0.006269282661378384], [0.0036534250248223543, -0.01576853357255459, -0.005672893486917019], [-0.004817761480808258, -0.01239266898483038, -0.009378082118928432]], [[-0.019121967256069183, -0.009357183240354061, 0.0014070073375478387], [-0.01432790607213974, -0.007452749647200108, -0.009842265397310257], [-0.005659564398229122, -0.0093225734308362, -0.0029844483360648155]], [[-0.024097228422760963, -0.01417255774140358, -0.012812381610274315], [-0.01724383607506752, -0.022174758836627007, -0.015446771867573261], [-0.01395335141569376, -0.019427817314863205, -0.03138132393360138]], [[-0.01491730846464634, -0.027183430269360542, -0.030750054866075516], [-0.001392057165503502, 0.012140024453401566, -0.0014032355975359678], [0.009060261771082878, 0.022528026252985, -0.005148850381374359]], [[-0.006824405863881111, -0.0006854970706626773, 0.0032012888696044683], [-0.012781335972249508, -0.004035005811601877, -0.0007897787727415562], [-0.007242545019835234, 0.003014315152540803, -0.006457359064370394]], [[-0.011717798188328743, -0.003113163635134697, 0.03332538902759552], [-0.009341198951005936, -0.013240398839116096, -0.007925870828330517], [-0.013958407565951347, -0.014423844404518604, -0.0019296001410111785]], [[0.003662674454972148, -0.002076182048767805, 0.0037578782066702843], [0.0026465251576155424, 0.013771342113614082, 0.011365613900125027], [0.01929091289639473, 0.01670628786087036, 0.016699492931365967]], [[0.015011440962553024, 0.03997664526104927, 0.01120198704302311], [0.019001122564077377, 0.046851497143507004, -0.007850109599530697], [0.00047580580576322973, 0.021664155647158623, -0.00991178210824728]], [[-0.007515582721680403, 0.005123040173202753, -0.009478332474827766], [-0.02061486430466175, 0.0012399753322824836, -0.007117875851690769], [-0.028211215510964394, -0.0065475283190608025, -0.0037465463392436504]], [[0.018813833594322205, 0.015419049188494682, 0.013476116582751274], [-0.014268264174461365, -0.004882317502051592, 0.021009545773267746], [0.011678890325129032, -0.0029701590538024902, -0.010307438671588898]], [[-0.013244815170764923, -0.02040201611816883, -0.010169729590415955], [-0.01167813315987587, -0.018355906009674072, -0.0007468917174264789], [0.002743739867582917, 0.006516292225569487, 0.024908510968089104]], [[-0.012633655220270157, -0.006497609429061413, 0.0062050060369074345], [0.005794460419565439, 0.003987274132668972, 0.018386095762252808], [0.005058477632701397, 0.0038511562161147594, 0.02487376518547535]], [[0.015615156851708889, 0.016533715650439262, 0.009507840499281883], [-0.009363426826894283, 0.044697217643260956, -0.001457494217902422], [0.017426110804080963, 0.01016814261674881, 0.006739938165992498]], [[-0.007802756503224373, -0.005133266095072031, 0.005087084602564573], [-0.0039014334324747324, -0.010760537348687649, -0.01634383574128151], [-0.012566924095153809, -0.030366448685526848, -0.004020975902676582]], [[0.00037475829594768584, -0.013113951310515404, -0.005917900241911411], [0.040858518332242966, 0.015579724684357643, -0.0017562833381816745], [0.01764592155814171, 0.0136483833193779, 0.019979406148195267]], [[-0.021319082006812096, -0.020475290715694427, -0.012946397997438908], [-0.011704142205417156, -0.03537620231509209, -0.01634456217288971], [-0.009112967178225517, -0.020646506920456886, -0.019265513867139816]], [[-0.006836026906967163, -0.0007907173712737858, -0.0008863650145940483], [-0.01205223798751831, -0.006483475212007761, 0.01280913408845663], [-0.017300616949796677, -0.007924588397145271, 0.007381389383226633]], [[-0.007927807979285717, 0.0014800134813413024, 0.005849562585353851], [-0.002828215481713414, -0.009090122766792774, -0.004645192064344883], [-0.0004015394952148199, -0.0058133723214268684, -0.0006709711742587388]], [[-0.009455995634198189, -0.030819250270724297, -0.011955857276916504], [-0.01489219255745411, -0.003443709807470441, -0.004972063470631838], [-0.011729862540960312, 0.0014660381712019444, -0.0057943579740822315]], [[-0.02821350283920765, -0.02807537466287613, -0.017644749954342842], [-0.0333557054400444, -0.028330596163868904, -0.009601246565580368], [-0.025997532531619072, -0.034458890557289124, -0.021828610450029373]], [[0.016850963234901428, 0.010631203651428223, 0.006957682315260172], [0.02042681723833084, 0.02195635996758938, 0.032798558473587036], [0.003933815751224756, -0.0024486251641064882, 0.015156995505094528]], [[-0.013161157257854939, -0.01374141126871109, -0.011658672243356705], [0.0020002219825983047, -0.012570693157613277, -0.012046116404235363], [-0.021672243252396584, -0.0312783420085907, -0.00028334904345683753]], [[0.01784096658229828, -0.009533551521599293, 0.021923737600445747], [0.006201955024152994, 0.009891137480735779, 0.01612350158393383], [0.03771160915493965, 0.012490818277001381, -0.008196858689188957]], [[-0.018720844760537148, -0.007744158618152142, -0.004564039409160614], [-0.015440704300999641, -0.0008385165710933506, -0.013122480362653732], [-0.008265014737844467, -0.006910736206918955, -0.003863162361085415]], [[0.035622965544462204, 0.04136795923113823, 0.017864763736724854], [0.016812417656183243, 0.013727446086704731, 0.0293977502733469], [0.00450565991923213, -0.0037350577767938375, 0.025620518252253532]], [[0.01624554954469204, 0.004481154959648848, 0.026118513196706772], [-0.005835062824189663, 0.010675386525690556, -0.005892180372029543], [-0.023062480613589287, 0.007847542874515057, -0.0006811682251282036]], [[-0.013553788885474205, -0.013708233833312988, -0.002514761406928301], [-0.006394519004970789, -0.01930084079504013, 0.006625423673540354], [-0.0029752093832939863, -0.01676955632865429, -0.001881623174995184]], [[-0.027590136975049973, -0.006932173389941454, -0.012666198424994946], [-0.01462848111987114, -0.02330421470105648, -0.011369220912456512], [-0.024231040850281715, -0.01639363169670105, 0.004950225353240967]], [[-0.015301253646612167, -0.018461398780345917, -0.009263942018151283], [0.007874901406466961, -0.010434653609991074, -0.008156386204063892], [0.032871875911951065, -0.002593017416074872, -0.002188884885981679]], [[-0.018130026757717133, -0.010339785367250443, 0.00458573130890727], [-0.018271109089255333, -0.006783325225114822, 0.008655090816318989], [-0.03852462023496628, -0.01607748307287693, -0.009180032648146152]], [[-0.009524096734821796, -0.010834608227014542, -0.010770267806947231], [0.0007207718444988132, -0.027661163359880447, -0.02323409542441368], [-0.009142221882939339, -0.020051678642630577, -0.016029756516218185]], [[-2.092614522553049e-06, -0.009648626670241356, -0.012923809699714184], [-0.013954045251011848, 0.009752030484378338, 0.006088268477469683], [-0.001169792958535254, 0.011303115636110306, 0.0015971629181876779]], [[0.002957472112029791, 0.0010367927607148886, 0.041321370750665665], [-0.010860087350010872, -0.004358957521617413, 0.004769576247781515], [-0.015794064849615097, -0.011622759513556957, -0.011698804795742035]], [[-0.008226280100643635, -0.034576043486595154, -0.030559735372662544], [-0.016884123906493187, -0.03258122131228447, -0.031386848539114], [-0.0018515231786295772, -0.009325029328465462, -0.023356657475233078]], [[0.017768176272511482, -0.009252880699932575, 0.007278407923877239], [0.014016909524798393, -0.014538480900228024, -0.005849809851497412], [0.0027202104683965445, -0.03179871290922165, -0.023114820942282677]], [[-0.0012290633749216795, 0.00022160675143823028, 0.00016335102554876357], [-0.002668439643457532, 0.0076804147101938725, 0.007544827647507191], [0.007460430730134249, 0.0006924406625330448, 0.006911757402122021]], [[-0.0038517245557159185, -0.005207957699894905, -0.0013048243708908558], [-0.026951484382152557, -0.03137277811765671, -0.018301131203770638], [-0.019439157098531723, -0.014804032631218433, -0.010695246048271656]], [[0.013655513525009155, -0.009902440942823887, -0.0067361341789364815], [-0.013418412767350674, -0.02244652807712555, -0.007040722295641899], [-0.0014024062547832727, -0.01387080643326044, -0.005441373214125633]], [[-0.010530814528465271, -0.016474761068820953, -0.006062072701752186], [-0.006104860454797745, -0.012093489989638329, -0.006705912761390209], [-0.011728213168680668, -0.02707287110388279, -0.0072695245034992695]], [[-0.002018087077885866, -0.00330742378719151, 0.004993429873138666], [-0.02478652261197567, -0.028323819860816002, -0.026586690917611122], [-0.011477761901915073, -0.020432334393262863, -0.016813768073916435]], [[-0.0005924901342950761, 0.026046669110655785, 0.025862913578748703], [-0.023590045049786568, -0.010877817869186401, -0.025173025205731392], [-0.016808390617370605, -0.0040658158250153065, 0.0020573046058416367]], [[-0.010428997687995434, -0.012070031836628914, -0.009824071079492569], [-0.01264409814029932, 0.016800349578261375, 0.01960570178925991], [-0.007655463647097349, 0.0012592620914801955, 0.006896302569657564]], [[-0.0038754695560783148, -0.002587300958111882, -0.009147346019744873], [-0.009371552616357803, -0.005243247374892235, -0.01545607391744852], [-0.011606196872889996, -0.010941637679934502, -0.01241445541381836]], [[-0.014639179222285748, -0.0328676737844944, -0.007030060980468988], [-0.01715150848031044, -0.023249344900250435, -0.016024447977542877], [-0.019367093220353127, -0.01357225514948368, -0.010913955047726631]], [[-0.0005633910186588764, -0.0030539976432919502, 0.003880068426951766], [0.0011766944080591202, 0.020556418225169182, 0.009663309901952744], [-0.011302950792014599, 0.0031477126758545637, -0.007779560983181]], [[0.013346519321203232, -0.01105919387191534, -0.014210173860192299], [0.002600919222459197, 0.010537857189774513, 0.004559807013720274], [0.03033520095050335, 0.038756098598241806, 0.017681770026683807]], [[-0.024289075285196304, 0.004776949528604746, -0.00905570574104786], [-0.010949194431304932, 0.0018063981551676989, -0.008562156930565834], [-0.006888862699270248, -0.00087771873222664, -0.0012016331311315298]], [[-0.020067885518074036, -0.019151857122778893, 0.008935175836086273], [-0.013938593678176403, -0.009986471384763718, -0.002229525940492749], [-0.009766003116965294, -0.007103840354830027, -0.00369453988969326]], [[0.02082056552171707, -0.016553295776247978, 0.0003362760762684047], [0.040923282504081726, 0.02098688669502735, 0.0073810662142932415], [0.012864998541772366, -0.00011865083070006222, -0.016004279255867004]], [[-0.01814754493534565, -0.029422713443636894, -0.009451033547520638], [-0.016103152185678482, -0.035988472402095795, -0.014748720452189445], [0.023935467004776, 0.012021503411233425, -0.008837033063173294]], [[-0.014651436358690262, -0.018064485862851143, -0.028959736227989197], [-0.025374116376042366, -0.006723268423229456, -0.007728179916739464], [-0.01918714866042137, -0.008518844842910767, 0.02899016998708248]], [[0.0023824165109544992, 0.02358323335647583, 0.007323703728616238], [-0.010448128916323185, -0.012457180768251419, -0.015911780297756195], [-0.018885988742113113, -0.0195130854845047, -0.009760068729519844]], [[-0.0030865068547427654, 0.006045606918632984, 0.005349163897335529], [-0.008752000518143177, -0.0025920241605490446, -0.007878516800701618], [-0.0044541205279529095, 0.0016119664069265127, 0.0012623826041817665]], [[-0.01393023319542408, -0.02379455603659153, -0.018687497824430466], [-0.016954418271780014, -0.021792994812130928, -0.022854048758745193], [-0.019697485491633415, -0.045879703015089035, -0.036445822566747665]], [[-0.004382984712719917, 0.001331382431089878, -0.004195561166852713], [-0.0016910639824345708, -0.009173336438834667, -0.011353832669556141], [-0.014446747489273548, -0.007909132167696953, -0.005671708844602108]], [[0.03809290751814842, 0.03662385046482086, 0.01429509837180376], [-0.021206604316830635, 0.01219141110777855, -0.0014462104300037026], [-0.012957503087818623, 0.001986722694709897, -0.015123961493372917]], [[-0.012504800222814083, -0.010263937525451183, -0.011865944601595402], [-0.019444918259978294, -0.022692358121275902, -0.0270776879042387], [-0.028445035219192505, -0.020818661898374557, -0.02261967398226261]], [[0.0014358412008732557, -0.002006995026022196, -0.016145089641213417], [-0.003411538666114211, -0.0009227098198607564, 0.007325241807848215], [0.007576661184430122, -0.0015068355714902282, 0.017574746161699295]], [[-0.0026563159190118313, -0.008792899549007416, 0.00259981001727283], [-0.00983482040464878, -0.017385199666023254, -0.014325028285384178], [0.007293118163943291, -0.0028715021908283234, 0.0006267463904805481]], [[-0.017057685181498528, -0.021929185837507248, -0.006231422536075115], [-0.01788777858018875, -0.022519059479236603, -0.007709899917244911], [-0.015429009683430195, -0.008540689013898373, 0.0005678596207872033]], [[0.000373330112779513, -0.013954893685877323, -0.011820327490568161], [-0.004268135409802198, -0.00294208200648427, 0.003521036123856902], [0.008394705131649971, 0.002806681441143155, 0.019498489797115326]], [[0.01404508575797081, -0.004625366069376469, 0.01449841819703579], [-0.008717712946236134, -0.0028010178357362747, 0.007472840603441], [0.012425561435520649, -0.0022704945877194405, 0.013354556635022163]], [[-0.011634182184934616, -0.01571767032146454, -0.001934850704856217], [-0.013703791424632072, 0.002623658161610365, 0.0190097875893116], [0.00042849135934375226, -0.007269310299307108, 0.034572962671518326]], [[0.0009819366969168186, -0.011403766460716724, 0.0051263682544231415], [-0.014418970793485641, 0.0025558138731867075, -0.001776224933564663], [-0.006507588550448418, 0.011552334763109684, -0.007099831011146307]], [[0.0015824732836335897, -0.010893937200307846, -0.008265755139291286], [0.010317753069102764, 0.02007451467216015, -0.013677499257028103], [-0.013849196024239063, -0.00832674466073513, -0.0010972974123433232]], [[0.019056828692555428, -0.0003926146891899407, 0.0009477132116444409], [0.016420550644397736, 0.006549595855176449, -0.002836253261193633], [0.0018989617237821221, -0.012252513319253922, -0.010470980778336525]], [[0.00665348581969738, 0.024098899215459824, 0.017798345535993576], [-8.71332740643993e-05, 0.0050578187219798565, -0.004722489044070244], [-0.01544690877199173, -0.01514627505093813, -0.014616496860980988]], [[0.02005615457892418, 0.016915177926421165, 1.694100137683563e-05], [-0.0032004553359001875, -0.002506878226995468, -0.010772989131510258], [0.008244464173913002, -0.005498349200934172, -0.006044555455446243]], [[0.001962701790034771, 0.009816080331802368, 0.011563840322196484], [-0.017785850912332535, -0.008194616995751858, 0.028945254161953926], [0.002173386747017503, 0.010199218988418579, 0.042597733438014984]], [[-0.01222962699830532, -0.015955712646245956, -0.014220917597413063], [0.009935788810253143, -0.007437894586473703, -0.009866890497505665], [-0.011713910847902298, -0.02469189278781414, -0.02393978275358677]], [[0.005155264865607023, 0.01736225187778473, 0.016227366402745247], [-0.0031622142996639013, 0.026772713288664818, 0.019994404166936874], [-0.0080481618642807, 0.016124144196510315, 0.01908120885491371]], [[-0.019909050315618515, 0.0024169255048036575, 0.004952285438776016], [-0.009834964759647846, 0.0009804563596844673, 0.00036620767787098885], [-0.005721935536712408, 0.012414900586009026, 0.005045576021075249]], [[-0.016235388815402985, -0.020751679316163063, -0.0051549202762544155], [-0.007755227852612734, -0.01814841292798519, -0.013524839654564857], [-0.014509394764900208, -0.020266423001885414, -0.007916143164038658]], [[-0.01513168029487133, -0.007077751215547323, -0.009846732020378113], [0.01621626876294613, -0.011374901980161667, -0.011090418323874474], [-0.004810001701116562, -0.00650289049372077, -0.006795520894229412]], [[-0.012043435126543045, -0.021924708038568497, 0.0041818320751190186], [-0.014623776078224182, -0.008593207225203514, 0.020496170967817307], [-0.012547924183309078, 0.005789111368358135, 0.007062419783324003]], [[0.004360169172286987, -0.010922585614025593, 0.0001946371339727193], [-0.0017776895547285676, -0.0026850844733417034, -0.006004841532558203], [-0.0005295510636642575, 0.002560026478022337, 0.011621562764048576]], [[-0.01836806908249855, -0.0004963789251632988, 0.012130550108850002], [-0.0008986889733932912, 0.018973004072904587, 0.004312582314014435], [-0.009983309544622898, -0.004852360114455223, -0.004942925646901131]], [[-0.005904619116336107, -0.017865823581814766, -0.03214579448103905], [-0.019045529887080193, -0.028191782534122467, -0.016033662483096123], [-0.010662886314094067, -0.016251130029559135, 0.0027779273223131895]], [[-0.0006832033977843821, 0.0037009879015386105, 0.01289288979023695], [0.003984701819717884, -0.002505594864487648, 0.009589173831045628], [0.0019139500800520182, 5.44368194823619e-05, 0.02081269584596157]], [[-0.0029877854976803064, -0.014255010522902012, -0.016628287732601166], [-0.01340518519282341, -0.004824263043701649, -0.014674081467092037], [0.003137498162686825, -0.0027885064482688904, 0.0003964378556702286]], [[-0.002576504135504365, -0.013475703075528145, 0.0018614731961861253], [-0.008647545240819454, -0.009673921391367912, 0.01922084204852581], [-0.012149730697274208, -0.011194230988621712, 0.013261444866657257]], [[0.0030854977667331696, -0.013445637188851833, -0.02906174585223198], [-0.024904534220695496, -0.018391849473118782, -0.016998901963233948], [0.005996113643050194, -0.005812569987028837, -0.0438733771443367]], [[-0.01681584306061268, -0.03152962774038315, -0.02184934914112091], [-0.008521690033376217, -0.006903892382979393, -0.012981443665921688], [0.008558498695492744, -0.013617267832159996, -0.013441788963973522]], [[-0.013970197178423405, -0.020056355744600296, -0.0011603201273828745], [-0.0020351300481706858, -0.01947258785367012, -0.01811830885708332], [0.015444106422364712, -0.010642782784998417, 0.006709869019687176]], [[-0.0021696132607758045, -0.0013374453410506248, 0.0023324403446167707], [-0.004986932035535574, -0.011867046356201172, -0.018723217770457268], [-0.008547753095626831, -0.007879240438342094, -0.007813998498022556]], [[-0.018803628161549568, -0.02925238013267517, -0.008141710422933102], [0.01536110881716013, 0.004502194933593273, -0.016835175454616547], [-0.009892892092466354, -0.007403272204101086, -0.019601883366703987]], [[-0.0020719273015856743, -0.020545488223433495, -0.028667587786912918], [-0.018631646409630775, -0.015694964677095413, -0.02759295143187046], [-0.012287970632314682, -0.0037461654283106327, -0.00014266262587625533]], [[0.0086737722158432, 0.009314878843724728, 0.025819584727287292], [0.00895771849900484, -0.0001159434177679941, 0.007696172688156366], [0.006041747517883778, 0.013514026999473572, 0.0004326875205151737]], [[0.0011943898862227798, -0.013110725209116936, 0.00795456487685442], [-0.009548408910632133, -0.010273640044033527, -0.011802064254879951], [-0.010684066452085972, -0.00028051613480784, -0.010481863282620907]], [[-0.01017619390040636, -0.006252847146242857, -0.009775222279131413], [-0.007320076692849398, -0.009233728051185608, -0.013556701131165028], [-0.007567794993519783, -0.008757422678172588, -0.009972726926207542]], [[-0.012741407379508018, -0.007751659955829382, -0.012292648665606976], [-0.02133326604962349, -0.009388171136379242, -0.021200282499194145], [-0.02129397913813591, -0.018702782690525055, -0.02418062463402748]], [[-0.010110080242156982, -0.003708900883793831, 0.008060533553361893], [0.0004742938035633415, 0.026046063750982285, 0.024251505732536316], [0.0066747236996889114, -0.007204947993159294, 0.0014229146763682365]], [[0.02011067047715187, 0.010550547391176224, 0.006882065441459417], [-0.021994806826114655, 0.009197273291647434, 0.026656925678253174], [-0.009742542169988155, -0.024931592866778374, -0.002333566779270768]], [[0.011377889662981033, 0.019544849172234535, -0.005039281211793423], [-0.011810412630438805, -0.008745161816477776, -0.03540930896997452], [0.01302905660122633, -0.021682389080524445, -0.015474657528102398]], [[0.005597369745373726, 0.020127778872847557, 0.022676188498735428], [-0.003639907343313098, 0.009743185713887215, 0.016981828957796097], [-0.003368628676980734, -0.001593203516677022, 0.00873220432549715]], [[-0.02281610295176506, -0.016459016129374504, -0.0022641571704298258], [-0.016513148322701454, -0.019012702628970146, -0.013309461064636707], [-0.005610958207398653, -0.020521260797977448, -0.004117033910006285]], [[-0.013086606748402119, 0.027008799836039543, 0.020435694605112076], [-0.013400069437921047, -0.0024354567285627127, 0.02093356102705002], [0.009134835563600063, -0.008321134373545647, 0.012660807929933071]], [[-0.010246683843433857, 0.007025773636996746, 0.007772096432745457], [0.009878536686301231, 0.033768489956855774, 0.011309574358165264], [-0.0017534951912239194, 0.0014672998804599047, 0.007345614489167929]], [[-0.01626802794635296, -0.011516157537698746, -0.013654133304953575], [-0.03648773208260536, -0.02768843248486519, -0.034291937947273254], [-0.00666749756783247, -0.006101743318140507, -0.01158815249800682]], [[-0.0033269678242504597, 0.012934903614223003, 0.0026916246861219406], [-0.01709337905049324, 0.00965603906661272, 0.005169139709323645], [-0.01976596750319004, 0.016360880807042122, 0.030768632888793945]], [[0.027430672198534012, 0.02272382751107216, 0.030700139701366425], [0.07072851806879044, 0.09189809858798981, 0.021482566371560097], [0.020144576206803322, 0.01348413061350584, 0.031164133921265602]], [[-0.021052971482276917, -0.01199145894497633, -0.005880688317120075], [-0.002591310767456889, -0.019839543849229813, -0.014712709002196789], [-4.502747833612375e-05, -0.016937309876084328, -0.004077672027051449]], [[-0.005686378572136164, -0.005439440719783306, -0.010407059453427792], [-0.014088505879044533, -0.00716155581176281, 0.011364768259227276], [-0.013951742090284824, -0.006413384340703487, 0.004727283492684364]], [[0.005362796131521463, 0.011806471273303032, 0.011894836090505123], [-0.002322979737073183, 0.007989744655787945, 0.017420262098312378], [0.01975330524146557, 0.013625412248075008, -0.0021791644394397736]], [[-0.007020624354481697, -0.0019101299112662673, -0.0011638511205092072], [-0.008831251412630081, 0.006949794944375753, -0.018809707835316658], [-0.015178467147052288, -0.004334273748099804, 0.0017128787003457546]], [[-0.005153124686330557, -0.00925576314330101, -0.014779487624764442], [-0.018169406801462173, -0.015740497037768364, -0.015581685118377209], [-0.0016086742980405688, 0.006051350850611925, -0.009549672715365887]], [[-0.016905900090932846, -0.019365470856428146, -0.016987955197691917], [-0.001886075595393777, 0.014740578830242157, -0.004935012198984623], [0.0024741136003285646, 0.03505535051226616, 0.017695603892207146]], [[-0.00645359605550766, -0.00976130273193121, -0.014856809750199318], [-0.004070299211889505, -0.014426106587052345, -0.013619489967823029], [0.0029819488991051912, -0.0010075047612190247, -0.002843137364834547]], [[0.02954212576150894, 0.02742852456867695, 0.006280382163822651], [0.011742913164198399, 0.027027921751141548, 0.016814162954688072], [-0.010504176840186119, -0.003548612352460623, 0.0001421962952008471]], [[0.023182984441518784, 0.012597787193953991, 0.009391512721776962], [0.01463890727609396, 0.004399891942739487, -0.003971049562096596], [0.006589209660887718, 0.011224454268813133, 0.010106639005243778]], [[-0.01703302375972271, -0.02099066972732544, -0.008929785341024399], [-0.014362839050590992, -0.02193657122552395, -0.02375165931880474], [-0.003578911768272519, -0.005309810396283865, -0.01848677545785904]], [[-0.0011405048426240683, 0.02134898491203785, 0.011737349443137646], [-0.007769845891743898, 0.040030766278505325, 0.02842390164732933], [0.0022227917797863483, 0.014584647491574287, 0.024110790342092514]], [[0.028104493394494057, -0.027363648638129234, 0.02151496894657612], [0.06990402936935425, 0.0979304313659668, -0.006782413925975561], [0.017438435927033424, 0.09330037236213684, 0.007251761853694916]], [[-0.02637302689254284, 0.016932355239987373, 0.03628143295645714], [-0.00877769198268652, 0.0001272927038371563, 0.04642607271671295], [0.01299216877669096, 0.006536093540489674, 0.0175540279597044]], [[-0.005082154646515846, 0.004765764344483614, -0.008965724147856236], [-0.015653030946850777, -0.00854105968028307, -0.004796694032847881], [0.007603207603096962, 0.002081802813336253, 0.0015524954069405794]], [[0.03423292562365532, 0.015467338263988495, -5.535966556635685e-05], [0.02266099490225315, 0.035463184118270874, -0.01888507790863514], [0.004450845066457987, 0.01001261081546545, -0.014111503958702087]], [[0.022845085710287094, 0.025100165978074074, 0.021525850519537926], [0.01204663049429655, 0.01058509573340416, 0.004658218938857317], [-0.022400571033358574, -0.004495767876505852, -0.019901277497410774]], [[-0.01351188961416483, -0.027178362011909485, -0.01308316271752119], [-0.015152298845350742, -0.012587022967636585, -0.015103325247764587], [-0.010805608704686165, -0.016911886632442474, -0.00958437379449606]], [[0.028448356315493584, 0.026229659095406532, 0.009956425055861473], [0.009454948827624321, 0.00975184515118599, -0.012557437643408775], [0.015449760481715202, -0.010563689284026623, -0.028859661892056465]], [[-0.02068435586988926, 0.012482812628149986, -0.008835889399051666], [-0.008116357028484344, 0.012566876597702503, 0.008543239906430244], [-0.019411569461226463, -4.705021274276078e-05, 0.025656087324023247]], [[0.00297459471039474, 0.015896877273917198, 0.010199143551290035], [-0.010863319970667362, 0.01887400634586811, 0.02368314377963543], [0.005181130953133106, -0.009636654518544674, -0.005985328461974859]], [[-0.009595736861228943, -0.026118187233805656, -0.018133236095309258], [0.011335455812513828, 0.006227896548807621, -0.02522245980799198], [0.015132442116737366, 0.002113698050379753, -0.010439015924930573]], [[-0.018127325922250748, -0.026947718113660812, -0.02125486172735691], [0.002812027931213379, -0.005557225085794926, 0.009261581115424633], [-0.000310770032228902, -0.005520064849406481, -0.005873181391507387]], [[-0.01403070893138647, -0.022498678416013718, -0.029687747359275818], [-0.02385323867201805, -0.014882677234709263, -0.020290473476052284], [-0.007679405622184277, -0.003928448539227247, -0.007865154184401035]]]}
