{"weights": [[[0.0035063044633716345, -0.013895695097744465, -0.020732879638671875, -0.020718930289149284, -0.013473227620124817, -0.005862415302544832, 0.003017171984538436, 0.027882372960448265, 0.03413316234946251, 0.021074077114462852, 0.026036283001303673], [0.018067121505737305, -0.00016060806228779256, -0.012837309390306473, -0.025828111916780472, -0.044070299714803696, -0.042192187160253525, -0.037241581827402115, -0.020669737830758095, 0.021785667166113853, 0.029764562845230103, 0.02021818980574608], [0.02805887907743454, 0.02295074425637722, 0.02018769085407257, 0.017911968752741814, 0.002274484606459737, -0.03648888319730759, -0.06663355231285095, -0.08065685629844666, -0.06457412242889404, -0.013491620309650898, 0.020037584006786346], [0.026322776451706886, 0.021075431257486343, 0.021519076079130173, 0.029392343014478683, 0.048994630575180054, 0.042698562145233154, 0.004321414511650801, -0.03813124820590019, -0.09169495850801468, -0.08083847910165787, -0.03784901648759842], [0.007294573355466127, 0.023520464077591896, 0.024315714836120605, 0.008671515621244907, -0.0015551572432741523, 0.03451216593384743, 0.06878390163183212, 0.07186311483383179, 0.025647450238466263, -0.04660215601325035, -0.07053560018539429], [-0.020272070541977882, 0.0030380666721612215, 0.026234934106469154, 0.03907810151576996, 0.009893904440104961, -0.022746490314602852, -0.008841399103403091, 0.03485153242945671, 0.05774880573153496, 0.033672995865345, -0.010160764679312706], [-0.031980615109205246, -0.03568116948008537, -0.012949756346642971, 0.04091183468699455, 0.08056449145078659, 0.06258532404899597, 0.012922543101012707, -0.021189050748944283, -0.007821417413651943, 0.010188814252614975, 0.018663683906197548], [-0.014450100250542164, -0.030490120872855186, -0.05296538025140762, -0.04145605489611626, 0.0062605831772089005, 0.05309588089585304, 0.07230518013238907, 0.0489179752767086, 0.0214141346514225, 0.011992862448096275, 0.020924385637044907], [-0.007559482008218765, -0.007688368670642376, -0.025105178356170654, -0.05119934305548668, -0.06952346116304398, -0.04878411442041397, 0.0008680507307872176, 0.03630349412560463, 0.04269172623753548, 0.031264230608940125, 0.033412061631679535], [-0.00024572754045948386, -0.0020003141835331917, 0.0072082937695086, -0.006573077291250229, -0.0300610288977623, -0.04876938834786415, -0.045509982854127884, -0.0249798484146595, -0.006703353952616453, 0.012705258093774319, 0.025172559544444084], [0.01879093237221241, 0.008665143512189388, 0.011598566547036171, 0.014125143177807331, 0.006091567222028971, -0.005174701102077961, -0.013742184266448021, -0.026328442618250847, -0.028663968667387962, -0.015151315368711948, 0.008225091733038425]], [[-0.0065169185400009155, 0.0008354106685146689, 0.003035692498087883, 0.012241101823747158, 0.00646493723616004, 0.0019354366231709719, -0.0003815532836597413, 0.007001379504799843, 0.008911129087209702, -0.009727966040372849, -0.009370074607431889], [-0.006070311181247234, -0.0036281906068325043, 0.005870256572961807, 0.011203499510884285, 0.0036154978442937136, 0.005879731848835945, -0.0044079916551709175, -0.006823296658694744, 0.021335165947675705, 0.02076689526438713, 0.0010592816397547722], [-0.01590186171233654, -0.008224264718592167, 0.004839727189391851, 0.027141883969306946, 0.04805240035057068, 0.03162028640508652, -0.0003624873352237046, -0.027351438999176025, -0.040219563990831375, -0.007356936577707529, 0.021112019196152687], [-0.016047395765781403, -0.03432050347328186, -0.047926418483257294, -0.033989354968070984, 0.024860579520463943, 0.07502471655607224, 0.08962169289588928, 0.0628679096698761, -0.012392617762088776, -0.04283977672457695, -0.0164997149258852], [0.0016421941109001637, -0.007643520832061768, -0.04423821344971657, -0.1004067212343216, -0.12507399916648865, -0.05860306695103645, 0.051237802952528, 0.12652470171451569, 0.12424898147583008, 0.047870635986328125, -0.003416941035538912], [0.0124264657497406, 0.031285375356674194, 0.03312329202890396, -0.005110099911689758, -0.09451593458652496, -0.17651112377643585, -0.16467468440532684, -0.06086217984557152, 0.046865325421094894, 0.08243793249130249, 0.057129207998514175], [0.014999679289758205, 0.014867241494357586, 0.04325670003890991, 0.09147477149963379, 0.091920405626297, 0.003536099335178733, -0.1122012659907341, -0.16761541366577148, -0.12327823787927628, -0.04615260288119316, 0.017219915986061096], [0.01974552869796753, 0.004096965305507183, -0.006823251489549875, 0.01245492696762085, 0.06868072599172592, 0.09828660637140274, 0.06894576549530029, -0.005557096563279629, -0.07132532447576523, -0.07431037724018097, -0.043165408074855804], [0.010668712668120861, 0.015052497386932373, 0.0009736885549500585, -0.018769538030028343, -0.019906047731637955, 0.013489262200891972, 0.05177345499396324, 0.06200268119573593, 0.024033410474658012, -0.014400473795831203, -0.02888386882841587], [-0.00010863247007364407, 0.007340557407587767, 0.014345462433993816, 0.009898187592625618, -0.0033039527479559183, -0.015775294974446297, -0.006737010087817907, 0.014580454677343369, 0.02190624549984932, 0.009262063540518284, -0.011317931115627289], [0.00579719478264451, -0.002566654235124588, -0.00549237709492445, 0.005000472068786621, 0.006750405766069889, 0.005949094891548157, 0.0047326707281172276, 0.0016630289610475302, 0.004892588593065739, 0.0031906592193990946, -0.005660560447722673]], [[0.001968243857845664, 0.0233540628105402, 0.030607132241129875, 0.0361001156270504, 0.021990500390529633, -0.0033441430423408747, -0.026815839111804962, -0.030975354835391045, -0.035523414611816406, -0.05175346881151199, -0.04954148828983307], [-0.023692522197961807, 0.0032726183999329805, 0.024022242054343224, 0.03944675624370575, 0.03723563998937607, 0.03320867568254471, 0.009207681752741337, -0.014469311572611332, -0.004679469391703606, -0.011546055786311626, -0.03089318238198757], [-0.04643028974533081, -0.0240870863199234, 0.0014521011617034674, 0.04825317859649658, 0.08279113471508026, 0.08241870254278183, 0.04858621954917908, 0.0029523728881031275, -0.02909849025309086, -0.012844116427004337, 0.0038337057922035456], [-0.03940975293517113, -0.06105314940214157, -0.0746096521615982, -0.04915981739759445, 0.03008454293012619, 0.10283993184566498, 0.13664120435714722, 0.1146497055888176, 0.029765073210000992, -0.01783154346048832, -0.004664302337914705], [-0.0027022992726415396, -0.024710452184081078, -0.07908983528614044, -0.14379268884658813, -0.16295620799064636, -0.0720253437757492, 0.06369176506996155, 0.1712951958179474, 0.17183400690555573, 0.0973547101020813, 0.04303063824772835], [0.025555923581123352, 0.029734710231423378, 0.012575956992805004, -0.04692345857620239, -0.15372848510742188, -0.23508024215698242, -0.2020510733127594, -0.06786899268627167, 0.07066917419433594, 0.1268605887889862, 0.12041997164487839], [0.03854213282465935, 0.03325977176427841, 0.05490938201546669, 0.0895126461982727, 0.06429068744182587, -0.042013946920633316, -0.16724655032157898, -0.21795670688152313, -0.14955182373523712, -0.0414426214993, 0.053215477615594864], [0.0324370302259922, 0.02031543105840683, 0.01828141137957573, 0.042946066707372665, 0.08807231485843658, 0.09729015827178955, 0.04642844572663307, -0.053662024438381195, -0.11614990234375, -0.10306864976882935, -0.05189705640077591], [0.0043574548326432705, 0.014592153951525688, 0.016856834292411804, 0.009214462712407112, 0.013021111488342285, 0.044575199484825134, 0.07083553820848465, 0.054777842015028, 0.0017215937841683626, -0.03941097483038902, -0.05166975408792496], [-0.019459377974271774, -0.009135380387306213, 0.006792123895138502, 0.0128429951146245, 0.008741211146116257, 0.012188858352601528, 0.023550694808363914, 0.03165142238140106, 0.02978353388607502, -0.0003523114719428122, -0.034135252237319946], [-0.024102455005049706, -0.033065274357795715, -0.031465839594602585, -0.012256844900548458, 0.0006830158527009189, 0.00651137437671423, 0.018110767006874084, 0.022496549412608147, 0.033568013459444046, 0.019919099286198616, -0.007884329184889793]]], "bias": -0.035389818251132965, "layer": "conv1", "i": 0}
{"weights": [[[0.027485547587275505, 0.00943777896463871, -0.0028823392931371927, -0.010506094433367252, -0.012093237601220608, -0.011006752960383892, -0.013436560519039631, -0.01983668841421604, -0.006450763437896967, 0.00030564545886591077, -0.009651336818933487], [0.030979571864008904, 0.014345687814056873, 0.004378780722618103, 0.0023943448904901743, -0.0029996444936841726, 0.0006525416974909604, 0.003617560025304556, -0.011380700394511223, -0.0036935654934495687, 0.006010056938976049, -0.0020266459323465824], [0.02641078270971775, 0.012261825613677502, 0.002008402021601796, 0.0011797152692452073, -0.007191714830696583, -0.0033688850235193968, -0.008050922304391861, -0.010382984764873981, -0.0007860243786126375, 0.007398263085633516, 0.0018776259385049343], [0.02747938223183155, 0.00955621711909771, 0.007508054841309786, 0.006306820549070835, -0.010731447488069534, -0.009465591982007027, -0.008731059730052948, -0.011138979345560074, -0.001844532904215157, 0.0067778355441987514, -0.000619478290900588], [0.023068657144904137, 0.0026942980475723743, 0.0009191607241518795, 0.003995646722614765, -0.0037964251823723316, -0.009638958610594273, -0.010454162023961544, -0.010778023861348629, 0.001612935564480722, 0.010644632391631603, 0.0002870968310162425], [0.02626870386302471, 0.003923882730305195, -0.0008814726606942713, 0.004401184618473053, -0.0033597068395465612, -0.013678143732249737, -0.010508915409445763, -0.012543373741209507, -0.0005304454825818539, 0.00623719859868288, 0.0050386846996843815], [0.012973572127521038, -0.005143958609551191, -0.004927978850901127, -0.0008162556914612651, -0.006186913698911667, -0.005744083784520626, -0.011262324638664722, -0.01564330793917179, -0.006736201699823141, 0.001814396702684462, -0.002785095712170005], [0.02412019670009613, 0.005828947760164738, -5.314893860486336e-05, -7.46836158214137e-05, 0.0032841330394148827, 0.0028768533375114202, -0.00572645990177989, -0.014348121359944344, -0.005942079238593578, 0.006210937164723873, -0.0009245601831935346], [0.019892117008566856, 0.004838179796934128, -0.004384635016322136, -0.006763908080756664, -0.0028649524319916964, 0.0027646608650684357, -0.0027829797472804785, -0.0108170285820961, -0.00024018489057198167, 0.00785737857222557, 0.0024485678877681494], [0.01720164157450199, -0.0039039808325469494, -0.008067307062447071, -0.01089917030185461, -0.011430101469159126, -0.00708328140899539, -0.006954330485314131, -0.013107480481266975, -0.0035861353389918804, 0.0039231437258422375, -0.0019991241861134768], [0.04701000079512596, 0.018936103209853172, 0.004643507767468691, 0.006630372256040573, -0.0010708993067964911, -0.0017582261934876442, -0.005067518446594477, -0.008592890575528145, -0.002599425846710801, 0.001452483469620347, -0.010095445439219475]], [[0.05376999452710152, 0.03544047474861145, 0.016311969608068466, -0.0028731264173984528, -0.015007399953901768, -0.03187054768204689, -0.043773725628852844, -0.055867426097393036, -0.04926932975649834, -0.03908483684062958, -0.03991129621863365], [0.05862288177013397, 0.04337657243013382, 0.03263596445322037, 0.014533338136970997, 0.00013630729517899454, -0.011676584370434284, -0.020370636135339737, -0.03898463025689125, -0.03756712004542351, -0.028578121215105057, -0.03629503771662712], [0.06120928004384041, 0.044065896421670914, 0.030064664781093597, 0.021647972986102104, 0.0017019513761624694, -0.011974227614700794, -0.03148505464196205, -0.03699683025479317, -0.0314006544649601, -0.022963406518101692, -0.031370218843221664], [0.05937732756137848, 0.046837709844112396, 0.04126957431435585, 0.03549623861908913, 0.00629662349820137, -0.01698159985244274, -0.03379281982779503, -0.037165317684412, -0.0311965961009264, -0.02428348921239376, -0.030602436512708664], [0.05558286979794502, 0.037010181695222855, 0.03471604734659195, 0.034034885466098785, 0.014279277063906193, -0.013226944021880627, -0.026330815628170967, -0.03389742597937584, -0.029160162433981895, -0.019477155059576035, -0.029100192710757256], [0.05449112504720688, 0.03186844661831856, 0.025809157639741898, 0.030175965279340744, 0.01585737243294716, -0.005803873762488365, -0.019839875400066376, -0.029130958020687103, -0.02321210503578186, -0.023300258442759514, -0.024615492671728134], [0.04219769686460495, 0.021725699305534363, 0.018755989149212837, 0.0187093373388052, 0.009305287152528763, 0.0010602060938253999, -0.015450406819581985, -0.028344055637717247, -0.024675123393535614, -0.02145569771528244, -0.025486595928668976], [0.04303737357258797, 0.023577233776450157, 0.01996714435517788, 0.01850423403084278, 0.013446689583361149, 0.0041662948206067085, -0.009363618679344654, -0.024704182520508766, -0.021072881296277046, -0.013419358991086483, -0.024067427963018417], [0.033503249287605286, 0.018499521538615227, 0.009601340629160404, 0.009100478142499924, 0.008894210681319237, 0.0033773640170693398, -0.006100142374634743, -0.018679726868867874, -0.015474542044103146, -0.007180479355156422, -0.01751316525042057], [0.028055697679519653, 0.012119244784116745, 0.0074952952563762665, 0.003622189862653613, 0.003644384443759918, -0.002211037091910839, -0.009214098565280437, -0.016567105427384377, -0.012086698785424232, -0.009851356968283653, -0.019038159400224686], [0.04887761175632477, 0.02760889381170273, 0.02160419151186943, 0.017470259219408035, 0.006706187967211008, -0.000461481831735, -0.0070002321153879166, -0.01285704504698515, -0.011524815112352371, -0.01617962121963501, -0.0298983883112669]], [[-0.00211075390689075, -6.265038246056065e-05, -0.002324050758033991, -0.0016199350357055664, 0.002684810198843479, 0.00709402235224843, 0.006745230406522751, 0.0017944376450031996, 0.007982544600963593, 0.009890197776257992, 0.0035886310506612062], [-0.005039283540099859, -0.005724760238081217, 0.0009184147347696126, 0.002540036803111434, 0.0009051013621501625, 0.008627950213849545, 0.011540200561285019, 0.005269663408398628, 0.007985038682818413, 0.008932285010814667, 0.0005321354256011546], [-0.006513271946460009, -0.007343982346355915, -0.01025197934359312, -0.005279356613755226, -0.004968347493559122, 0.0021143488120287657, -0.0005404670955613256, 0.00029497104696929455, 0.006171694956719875, 0.0076579805463552475, 0.004465580452233553], [-0.0083460146561265, -0.0062782056629657745, -0.003936447203159332, -5.4514039220521227e-05, -0.008284670300781727, -0.004781910218298435, -0.0008621977176517248, 0.004822385031729937, 0.009210105054080486, 0.01126769557595253, 0.0070304349064826965], [-0.007880968041718006, -0.012234420515596867, -0.012765824794769287, -0.006040891166776419, -0.0041562458500266075, -0.006615869700908661, 0.0012225644895806909, 0.0065942369401454926, 0.010533335618674755, 0.013069153763353825, 0.009914434514939785], [-0.005257844924926758, -0.013010724447667599, -0.010546979494392872, -0.000454651250038296, -0.002835813444107771, -0.006035567261278629, 0.0005110295605845749, 0.0036762775853276253, 0.009538755752146244, 0.007757576182484627, 0.008248207159340382], [-0.007635819725692272, -0.012144114822149277, -0.009163263253867626, -0.0038048916030675173, -0.006295366212725639, -0.0010539796203374863, -0.003385889111086726, -0.0030040789861232042, 0.004172901157289743, 0.007521350868046284, 0.003449226263910532], [-0.0009304257691837847, -0.005330554209649563, -0.0031562570948153734, -0.0005244311760179698, 0.0013679021503776312, 0.000981197808869183, 0.0008229723898693919, -0.0022671157494187355, 0.0057980893179774284, 0.009353695437312126, 0.0039525749161839485], [-0.0020056592766195536, -0.0021841921843588352, -0.003589922096580267, -0.0002075292868539691, 0.0013996692141517997, 0.0007667518220841885, 0.002072871197015047, -0.002299064304679632, 0.0022403080947697163, 0.009167716838419437, 0.002128257881850004], [-0.005298590287566185, -0.007085378281772137, -0.004930389579385519, -0.005049566272646189, -0.003602612065151334, -0.0002892859047278762, 0.0019404127961024642, -0.0007256314274854958, 0.0016012543346732855, 0.0031353533267974854, 0.0016982352826744318], [0.005378978792577982, -0.005480233579874039, -0.0031400686129927635, -0.0014524731086567044, -0.0023442963138222694, -0.0009048935025930405, -0.0018595877336338162, -0.003542151767760515, -0.003198595019057393, -0.001479542232118547, -0.01371832750737667]]], "bias": -0.04741928353905678, "layer": "conv1", "i": 1}
{"weights": [[[-0.0043465434573590755, 0.007721266243606806, 0.006445247679948807, -0.018245693296194077, -0.03679211437702179, -0.013214719481766224, 0.017438089475035667, 0.024749279022216797, 0.01757865399122238, 0.007762606721371412, -0.0026228742208331823], [0.012116671539843082, -0.005063388962298632, -0.03292340785264969, -0.030771329998970032, 0.027218038216233253, 0.07287534326314926, 0.057454582303762436, 0.0193365179002285, -0.01196407712996006, -0.022783491760492325, -0.012632564641535282], [0.005407639313489199, -0.024819107726216316, -0.004637083970010281, 0.0699029192328453, 0.11308368295431137, 0.05566035211086273, -0.03954010829329491, -0.08125946670770645, -0.06810691952705383, -0.028675230219960213, 0.005019672214984894], [-0.0005328344414010644, 0.019242815673351288, 0.07645487040281296, 0.0803757831454277, -0.02169744484126568, -0.13080132007598877, -0.1521642506122589, -0.08019306510686874, 0.0065850550308823586, 0.042866792529821396, 0.03774990513920784], [0.004860471934080124, 0.034496016800403595, 0.014502276666462421, -0.08337093889713287, -0.17614038288593292, -0.13123758137226105, -0.004851074423640966, 0.11513536423444748, 0.11909609287977219, 0.04999909549951553, 0.008988731540739536], [0.005334601737558842, -0.019822916015982628, -0.08458788692951202, -0.10866187512874603, -0.02950371615588665, 0.10513458400964737, 0.19464248418807983, 0.14058925211429596, 0.018025729805231094, -0.045259490609169006, -0.034429531544446945], [-0.01570039615035057, -0.036015789955854416, -0.026353416964411736, 0.05599473416805267, 0.14113673567771912, 0.15900497138500214, 0.04971766844391823, -0.07713344693183899, -0.1078353002667427, -0.05121827870607376, -0.008576594293117523], [-0.006645429413765669, 0.004497862420976162, 0.04426581785082817, 0.07656213641166687, 0.04757245257496834, -0.048024240881204605, -0.1253407746553421, -0.10083004832267761, -0.01670977473258972, 0.028590798377990723, 0.006612630560994148], [-0.0020703619811683893, 0.01355651393532753, 0.013888413086533546, -0.00947345420718193, -0.061935123056173325, -0.08097357302904129, -0.031847573816776276, 0.02796620875597, 0.04173051193356514, 0.010927816852927208, -0.006751704961061478], [0.005975772626698017, 0.0024393093772232533, -0.003293731017038226, -0.021950071677565575, -0.021522779017686844, 0.0008380088256672025, 0.028727252036333084, 0.02461272105574608, -0.002639275509864092, -0.010445787571370602, 0.0021750819869339466], [0.0022689010947942734, -0.007806635927408934, -0.004849007353186607, -0.006482651457190514, 0.008307212963700294, 0.011020836420357227, 0.00835592020303011, 0.003574723843485117, 0.0003192689619027078, 0.010749602690339088, 0.013884554617106915]], [[-0.007618238218128681, 0.005147773772478104, 5.0878021284006536e-05, -0.022481005638837814, -0.035002075135707855, -0.00422327546402812, 0.028925463557243347, 0.03432958573102951, 0.016864953562617302, 0.0070405625738203526, -0.006285422015935183], [0.00629837904125452, -0.007893570698797703, -0.03941153734922409, -0.028670543804764748, 0.04821917414665222, 0.09887411445379257, 0.0687720850110054, 0.01253416109830141, -0.028759991750121117, -0.037451617419719696, -0.02373228408396244], [0.0008775547030381858, -0.025071213021874428, 0.01182613056153059, 0.10394541174173355, 0.1448981761932373, 0.054601483047008514, -0.07282291352748871, -0.12058929353952408, -0.09579134732484818, -0.0370301716029644, 0.011940427124500275], [0.003285353071987629, 0.03795802220702171, 0.10415340214967728, 0.0943596214056015, -0.052260443568229675, -0.1951368898153305, -0.20972438156604767, -0.10689641535282135, 0.020208803936839104, 0.07065530121326447, 0.061244793236255646], [0.01154378242790699, 0.043744225054979324, -0.0015103768091648817, -0.1423262655735016, -0.24976634979248047, -0.17927758395671844, 0.005469843745231628, 0.16554202139377594, 0.1726876199245453, 0.07512810081243515, 0.010173444636166096], [0.00045148757635615766, -0.04394371435046196, -0.13557960093021393, -0.15952517092227936, -0.033481474965810776, 0.15320001542568207, 0.2746395766735077, 0.19741201400756836, 0.030727099627256393, -0.06350438296794891, -0.05171685665845871], [-0.030619971454143524, -0.05427049100399017, -0.03119388408958912, 0.08197800070047379, 0.20512768626213074, 0.23184756934642792, 0.08153083175420761, -0.1017942950129509, -0.1535375863313675, -0.07545799016952515, -0.008593105711042881], [-0.006020573899149895, 0.014261075295507908, 0.07363826036453247, 0.11712205410003662, 0.08116766810417175, -0.05123182013630867, -0.16908355057239532, -0.14506247639656067, -0.03248651325702667, 0.03540154919028282, 0.01678917370736599], [0.0055489856749773026, 0.02781147137284279, 0.03368670865893364, 0.0030676110181957483, -0.07425406575202942, -0.11390767246484756, -0.05391787737607956, 0.03381132334470749, 0.06149299442768097, 0.01915745995938778, -0.005850865039974451], [0.010367969051003456, 0.006162700243294239, -0.0008677890291437507, -0.034457337111234665, -0.040954045951366425, -0.004597845487296581, 0.033402636647224426, 0.03521867096424103, 0.0009474851540289819, -0.015546156093478203, 0.0017901762621477246], [0.00606728158891201, -0.00366267841309309, -0.006105419714003801, -0.010754544287919998, 0.002882421715185046, 0.013448139652609825, 0.013306408189237118, 0.0030146234203130007, -0.007079890463501215, 0.004452962428331375, 0.01218488160520792]], [[-0.003911193460226059, 0.008983681909739971, 0.007258653175085783, -0.03303902596235275, -0.05064423009753227, -0.025024935603141785, 0.01785079389810562, 0.030388325452804565, 0.020199695602059364, 0.013076134026050568, -0.007697878405451775], [0.004726125858724117, -0.005489110015332699, -0.04451783373951912, -0.04397806152701378, 0.02653658017516136, 0.08740352094173431, 0.071416936814785, 0.030969535931944847, -0.008619382046163082, -0.02610931731760502, -0.01735607534646988], [-0.009319419041275978, -0.03777643293142319, -0.009564523585140705, 0.08196128159761429, 0.13930578529834747, 0.07392019033432007, -0.030418498441576958, -0.0855942815542221, -0.07369096577167511, -0.031496040523052216, -0.00016304520249832422], [-0.006238723173737526, 0.02525506168603897, 0.095713309943676, 0.11103752255439758, -0.006616927683353424, -0.13945427536964417, -0.1682114601135254, -0.09336517751216888, 0.004903019871562719, 0.04545745626091957, 0.03280039131641388], [0.019037241116166115, 0.05746135488152504, 0.03022209368646145, -0.09595689177513123, -0.20103411376476288, -0.15911686420440674, -0.01847114786505699, 0.11091196537017822, 0.12213768064975739, 0.04652433097362518, -0.0040953317657113075], [0.017911389470100403, -0.015269085764884949, -0.09560029953718185, -0.1333179473876953, -0.04623331129550934, 0.10147649794816971, 0.20003239810466766, 0.1399499922990799, 0.011183416470885277, -0.05038546770811081, -0.036054931581020355], [-0.010008648037910461, -0.035639312118291855, -0.03542383760213852, 0.047460492700338364, 0.14608582854270935, 0.16968673467636108, 0.0487561970949173, -0.09255798161029816, -0.11679790169000626, -0.04570362716913223, 0.005336954724043608], [-0.0056823850609362125, 0.004063956439495087, 0.04469240456819534, 0.07785335183143616, 0.05430144444108009, -0.0500236377120018, -0.13388854265213013, -0.10071752965450287, -0.0011134311789646745, 0.04992584511637688, 0.01625247113406658], [-0.010925882495939732, 0.009709413163363934, 0.01718563213944435, -0.001739875297062099, -0.061861131340265274, -0.08346924930810928, -0.02656077966094017, 0.046872828155756, 0.0650927945971489, 0.018066998571157455, -0.012760537676513195], [-0.0008149941568262875, 0.001538459095172584, -0.0029740589670836926, -0.02345610223710537, -0.02204829640686512, 0.011632339097559452, 0.04321188107132912, 0.03347068652510643, -0.007545421365648508, -0.01710146851837635, -0.004869478289037943], [-0.002255805302411318, -0.002959701931104064, -0.007050945423543453, -0.004427142906934023, 0.012930662371218204, 0.016414444893598557, 0.00726251071318984, -0.009008933790028095, -0.015403931960463524, -0.0029373380821198225, 0.004695712588727474]]], "bias": -0.045869313180446625, "layer": "conv1", "i": 2}
{"weights": [[[0.022319160401821136, 0.019420186057686806, 0.001332663232460618, -0.025527719408273697, -0.026799561455845833, -0.04100043326616287, -0.033444326370954514, -0.0032353640999644995, 0.02379566989839077, 0.03856247663497925, 0.040736328810453415], [0.02162320725619793, 0.02197638712823391, 0.016790863126516342, -0.008773168548941612, -0.020766980946063995, -0.04130956903100014, -0.04102959483861923, -0.021074533462524414, 0.01845836266875267, 0.03810012340545654, 0.04647717624902725], [0.014625687152147293, 0.026529105380177498, 0.023158365860581398, 0.009238519705832005, 0.004170803818851709, -0.03351205587387085, -0.055288054049015045, -0.04611022025346756, -0.006076602265238762, 0.03076004609465599, 0.04802829027175903], [-0.0029158403631299734, 0.023405054584145546, 0.034812070429325104, 0.012753939256072044, 0.027156589552760124, -0.016073986887931824, -0.06943424046039581, -0.06811192631721497, -0.03059007227420807, 0.0165285412222147, 0.04052911698818207], [-0.01267537847161293, 0.015645328909158707, 0.04216765984892845, 0.015176475048065186, 0.025846341624855995, 0.0145200090482831, -0.046849608421325684, -0.07951865345239639, -0.04923340305685997, -5.0657901738304645e-05, 0.03239670395851135], [-0.02166898362338543, -0.005316311959177256, 0.044887974858284, 0.03409784287214279, 0.03362610936164856, 0.04313905909657478, -0.004947070498019457, -0.06879018992185593, -0.06479476392269135, -0.018087543547153473, 0.018404299393296242], [-0.027449749410152435, -0.022189533337950706, 0.02876794897019863, 0.03941013664007187, 0.03266911208629608, 0.052412115037441254, 0.03331267833709717, -0.04072786495089531, -0.0674094408750534, -0.027296600863337517, 0.0113877784460783], [-0.021432749927043915, -0.02289539761841297, 0.007183937355875969, 0.027064718306064606, 0.022008171305060387, 0.03714936226606369, 0.04275045171380043, -0.011400743387639523, -0.05835871398448944, -0.027623608708381653, 0.0003840333956759423], [-0.024158721789717674, -0.0249539352953434, -0.007459327578544617, 0.014530304819345474, 0.01586676388978958, 0.022014882415533066, 0.0397658534348011, 0.018975546583533287, -0.03470410034060478, -0.03240888565778732, -0.001569913001731038], [-0.01954089291393757, -0.025492995977401733, -0.011814353056252003, -0.00161974027287215, 0.013902773149311543, 0.013803524896502495, 0.036972738802433014, 0.033018797636032104, -0.0061417086981236935, -0.02780759707093239, -0.007410634774714708], [-0.014390066266059875, -0.01733013615012169, -0.01665435917675495, -0.009990929625928402, 0.0014054480707272887, 0.01002698764204979, 0.030216196551918983, 0.03784475848078728, 0.01776396483182907, -0.007465703878551722, -0.005668447352945805]], [[-0.013038812205195427, -0.016132071614265442, -0.021536286920309067, -0.0012862387811765075, 0.04456315189599991, 0.02013128064572811, -0.01111716590821743, -0.021291429176926613, -0.01678028516471386, -0.011741423048079014, -0.010785659775137901], [0.005940140224993229, -0.013551107607781887, -0.026654310524463654, -0.012822060845792294, 0.043429892510175705, 0.045269038528203964, 0.008153917267918587, -0.022093312814831734, -0.012515122070908546, -0.0025919373147189617, -0.004030994605273008], [0.014363820664584637, -0.0034206099808216095, -0.04307800903916359, -0.04118303954601288, 0.0391765795648098, 0.0650957003235817, 0.0351179800927639, -0.012715296819806099, -0.024492403492331505, -0.01275263074785471, -0.0038264277391135693], [0.013082859106361866, 0.008061381988227367, -0.03846526890993118, -0.08227434754371643, 0.012982716783881187, 0.07079828530550003, 0.04925795644521713, 0.008924553170800209, -0.021109754219651222, -0.016108140349388123, -0.009300177916884422], [0.017272422090172768, 0.015368534252047539, -0.01153568271547556, -0.09993570297956467, -0.04958626255393028, 0.05564513057470322, 0.07384876906871796, 0.03301044926047325, -0.005446926690638065, -0.014695605263113976, -0.007120959926396608], [0.019733356311917305, 0.018814237788319588, 0.018079614266753197, -0.07383916527032852, -0.09198252111673355, 0.014259491115808487, 0.07864367961883545, 0.04874088615179062, 0.010708949528634548, -0.00764327310025692, -0.009809610433876514], [0.013020997866988182, 0.014850260689854622, 0.04092526435852051, -0.02559925615787506, -0.09563178569078445, -0.03259694576263428, 0.05232836306095123, 0.048643629997968674, 0.015888959169387817, 0.003997104242444038, -0.003465685062110424], [0.015674572438001633, 0.006994306109845638, 0.03104318305850029, 0.006823497824370861, -0.07067444920539856, -0.06791317462921143, 0.007836287841200829, 0.03508178889751434, 0.007358921226114035, 0.005885256454348564, -0.003106605727225542], [0.015823790803551674, 0.008429496549069881, 0.02344803884625435, 0.02040482684969902, -0.028237884864211082, -0.06011103466153145, -0.014073401689529419, 0.030419208109378815, 0.0075545115396380424, -0.0027062292210757732, 0.002536783227697015], [0.014757263474166393, 0.009527893736958504, 0.014433952048420906, 0.017847318202257156, 0.0027176111470907927, -0.033660855144262314, -0.019499609246850014, 0.02008718252182007, 0.014523664489388466, -0.0026826790999621153, 0.005395553074777126], [0.006198979914188385, 0.013364526443183422, 0.012888919562101364, 0.015468312427401543, 0.005763567518442869, -0.02287435345351696, -0.022860992699861526, 0.00539330905303359, 0.012567094527184963, -0.0005507705500349402, -0.0037946344818919897]], [[-0.04587942361831665, -0.026406655088067055, -4.553542748908512e-05, 0.053825028240680695, 0.11614281684160233, 0.0811258852481842, 0.008741280063986778, -0.035967983305454254, -0.05119480937719345, -0.050037577748298645, -0.038078125566244125], [-0.026241734623908997, -0.035438068211078644, -0.03565245121717453, 0.013183120638132095, 0.10771908611059189, 0.11023855209350586, 0.04798770323395729, -0.028716353699564934, -0.04885629564523697, -0.04391155019402504, -0.03961927816271782], [-0.011683226563036442, -0.03351369500160217, -0.07267887890338898, -0.044658124446868896, 0.0859222412109375, 0.13678154349327087, 0.09801161289215088, 0.008896689862012863, -0.04594683647155762, -0.051780782639980316, -0.05236867070198059], [-0.0015987957594916224, -0.027348723262548447, -0.08815270662307739, -0.12283111363649368, 0.019809400662779808, 0.13694491982460022, 0.13715510070323944, 0.06090303137898445, -0.020128440111875534, -0.04781755432486534, -0.06161445006728172], [0.014638523571193218, -0.008446397259831429, -0.06336679309606552, -0.15763424336910248, -0.07749232649803162, 0.08996650576591492, 0.1540982574224472, 0.10978172719478607, 0.02768740989267826, -0.027510877698659897, -0.059627827256917953], [0.0260054599493742, 0.005495225079357624, -0.026905899867415428, -0.1438709795475006, -0.14993974566459656, 0.017847586423158646, 0.1450880467891693, 0.13751143217086792, 0.06467372179031372, -0.004196385852992535, -0.047026701271533966], [0.027429411187767982, 0.005773589015007019, 0.0032665766775608063, -0.08772899955511093, -0.17432549595832825, -0.0643380805850029, 0.08948680758476257, 0.13087140023708344, 0.08196055144071579, 0.030501730740070343, -0.019960258156061172], [0.028316648676991463, 0.00998631026595831, 0.012276393361389637, -0.04092966392636299, -0.14570173621177673, -0.1290256381034851, 0.00473398994654417, 0.08286246657371521, 0.0647239163517952, 0.04173189774155617, -0.00038751549436710775], [0.03660442307591438, 0.024719057604670525, 0.025454115122556686, -0.0032399313058704138, -0.08584024757146835, -0.12386658042669296, -0.05156532675027847, 0.036566752940416336, 0.04762885719537735, 0.03787690028548241, 0.02277647890150547], [0.037372734397649765, 0.029514649882912636, 0.02818838320672512, 0.01521542202681303, -0.025559628382325172, -0.08352342247962952, -0.06077955290675163, 0.003987855277955532, 0.026172587648034096, 0.02119443006813526, 0.027481218799948692], [0.029348647221922874, 0.03391639515757561, 0.023623084649443626, 0.014857710339128971, -0.015164644457399845, -0.06534747034311295, -0.0746244341135025, -0.03332579880952835, -0.00043739433749578893, 0.003530676942318678, 0.01161984447389841]]], "bias": -0.029966773465275764, "layer": "conv1", "i": 3}
{"weights": [[[-0.034759633243083954, -0.019299447536468506, -0.005027818959206343, 0.009046624414622784, 0.027906786650419235, 0.039868734776973724, 0.052650272846221924, 0.04677899554371834, 0.055371347814798355, 0.045452363789081573, 0.044899892061948776], [-0.050444189459085464, -0.03579983860254288, -0.021825946867465973, -0.008072694763541222, 0.019765295088291168, 0.03234873712062836, 0.04974760487675667, 0.04209156334400177, 0.0397152453660965, 0.03128436580300331, 0.03310519456863403], [-0.059616200625896454, -0.04455883055925369, -0.027840858325362206, -0.003668741090223193, 0.01743338629603386, 0.038406748324632645, 0.05266012251377106, 0.05146637558937073, 0.04002663493156433, 0.033565156161785126, 0.033526450395584106], [-0.05470546707510948, -0.04528972506523132, -0.027846477925777435, -0.0051368223503232, 0.019187945872545242, 0.03862729296088219, 0.06057848408818245, 0.05648960545659065, 0.0441596657037735, 0.03058581054210663, 0.032023511826992035], [-0.06077194958925247, -0.04899648576974869, -0.03374233841896057, -0.010781987570226192, 0.013779526576399803, 0.035196397453546524, 0.06423649936914444, 0.05566110834479332, 0.05113663896918297, 0.03365520015358925, 0.032760318368673325], [-0.05583899840712547, -0.04964016005396843, -0.03755271062254906, -0.006643366534262896, 0.014166940934956074, 0.031717218458652496, 0.06297362595796585, 0.06053809076547623, 0.05098903179168701, 0.03450160101056099, 0.03466494008898735], [-0.0567147396504879, -0.05179941654205322, -0.035784121602773666, -0.014027931727468967, 0.004737484734505415, 0.021829957142472267, 0.050194162875413895, 0.0481378436088562, 0.05000634863972664, 0.0311483982950449, 0.030851975083351135], [-0.05488048121333122, -0.04448608681559563, -0.03779996186494827, -0.016205336898565292, -0.0014084046706557274, 0.012969891540706158, 0.03238386660814285, 0.04037583991885185, 0.03837680444121361, 0.029880868270993233, 0.03744637221097946], [-0.0500306561589241, -0.04467221722006798, -0.04044162482023239, -0.027227085083723068, -0.013592656701803207, 0.0034482814371585846, 0.018804507330060005, 0.030517054721713066, 0.027019115164875984, 0.022632881999015808, 0.03193797543644905], [-0.0486832931637764, -0.04043029248714447, -0.030225643888115883, -0.029523830860853195, -0.015879275277256966, -0.0001687664189375937, 0.01696799136698246, 0.021561741828918457, 0.024158230051398277, 0.019368113949894905, 0.03150424361228943], [-0.05048685520887375, -0.037916168570518494, -0.02286192774772644, -0.015404867008328438, -0.009717946872115135, 0.0027417081873863935, 0.014452815987169743, 0.02075175754725933, 0.024288706481456757, 0.028828473761677742, 0.032738856971263885]], [[0.018391428515315056, 0.010957600548863411, 0.007974304258823395, 0.0006791482446715236, -0.008510399609804153, -0.015784135088324547, -0.013439007103443146, -0.02720068395137787, -0.019671916961669922, -0.016748100519180298, -0.007177894935011864], [0.015072792768478394, 0.009240147657692432, 0.01010038424283266, 0.00031402308377437294, -0.010868527926504612, -0.017875757068395615, -0.011497585102915764, -0.02271297387778759, -0.02219398319721222, -0.01766560971736908, -0.008814583532512188], [0.019944747909903526, 0.010336409322917461, 0.011152691207826138, 0.009871119633316994, -0.010719978250563145, -0.018855268135666847, -0.019561709836125374, -0.020001454278826714, -0.02003517933189869, -0.012017988599836826, -0.004067469388246536], [0.02518634870648384, 0.014848513528704643, 0.016224591061472893, 0.008752402849495411, -0.010542375035583973, -0.027229351922869682, -0.022033274173736572, -0.02683270163834095, -0.02266409434378147, -0.017796002328395844, -0.0019094821764156222], [0.022166533395648003, 0.017619891092181206, 0.02187085896730423, 0.010182366706430912, -0.01293270755559206, -0.03110012784600258, -0.019604502245783806, -0.02922859415411949, -0.022084716707468033, -0.01697167381644249, -0.0009197688195854425], [0.025901542976498604, 0.017297865822911263, 0.018472913652658463, 0.02283424884080887, -0.006316629238426685, -0.027286037802696228, -0.01875612698495388, -0.02407805062830448, -0.021860096603631973, -0.0167279951274395, -0.003403509734198451], [0.02579784020781517, 0.017694823443889618, 0.024118879809975624, 0.02531087026000023, 0.002477589063346386, -0.025911886245012283, -0.019822996109724045, -0.0259928610175848, -0.01884106546640396, -0.018153341487050056, -0.010821075178682804], [0.017129529267549515, 0.019282855093479156, 0.021318228915333748, 0.027713114395737648, 0.012376245111227036, -0.011302300728857517, -0.017784183844923973, -0.019802650436758995, -0.01861565187573433, -0.01319906860589981, -0.00536046689376235], [0.01909363642334938, 0.012471367605030537, 0.011266471818089485, 0.018016783520579338, 0.009389829821884632, -0.0003432177472859621, -0.009898127056658268, -0.01288191694766283, -0.018908020108938217, -0.01782236061990261, -0.010139919817447662], [0.013898408971726894, 0.013273579068481922, 0.010662145912647247, 0.0035608357284218073, 0.004268415737897158, 0.0032168212346732616, 5.912294000154361e-05, -0.012305740267038345, -0.012043563649058342, -0.014678101986646652, -0.011521725915372372], [0.008953782729804516, 0.009042286314070225, 0.014846554026007652, 0.008122689090669155, 0.0033915729727596045, 0.000872698612511158, -0.0014448858564719558, -0.01125955581665039, -0.010571429505944252, -0.007773331832140684, -0.013624702580273151]], [[0.04131000116467476, 0.02477346546947956, 0.014828912913799286, 0.005756893660873175, -0.011379435658454895, -0.02719402126967907, -0.035420969128608704, -0.05287869647145271, -0.040272682905197144, -0.03081020899116993, -0.015861602500081062], [0.047870803624391556, 0.029104072600603104, 0.02397753857076168, 0.010184258222579956, -0.013148212805390358, -0.03345679119229317, -0.038143862038850784, -0.05081716179847717, -0.03696751594543457, -0.02175024338066578, -0.008841896429657936], [0.05732874944806099, 0.037521012127399445, 0.02997319959104061, 0.0163712240755558, -0.021180329844355583, -0.04390326142311096, -0.05315560847520828, -0.05116388574242592, -0.03791045397520065, -0.01611652411520481, -0.001139056053943932], [0.06156367436051369, 0.04241331294178963, 0.03821315988898277, 0.012612688355147839, -0.029733141884207726, -0.062297072261571884, -0.06401539593935013, -0.06162227317690849, -0.041814740747213364, -0.023187285289168358, 0.00517309783026576], [0.05808845907449722, 0.046458955854177475, 0.04295562207698822, 0.013475768268108368, -0.03540969267487526, -0.0712360218167305, -0.06396515667438507, -0.06136224418878555, -0.03936295956373215, -0.019772201776504517, 0.0030965274199843407], [0.05910631641745567, 0.04293644428253174, 0.041828129440546036, 0.03201720491051674, -0.02072920650243759, -0.06322783976793289, -0.05905294418334961, -0.055296462029218674, -0.04129548370838165, -0.02248653769493103, 0.0017259040614590049], [0.05647396296262741, 0.0463174432516098, 0.05221453681588173, 0.04165109992027283, -0.0025586450938135386, -0.0518140010535717, -0.05554661527276039, -0.05818181857466698, -0.04384718835353851, -0.026674307882785797, -0.01574454829096794], [0.04111731797456741, 0.04227447882294655, 0.0489262156188488, 0.04566666856408119, 0.0122532295063138, -0.03119298815727234, -0.04759765416383743, -0.05014990642666817, -0.03960607573390007, -0.024653442203998566, -0.012394784949719906], [0.04168575257062912, 0.0380905419588089, 0.039569124579429626, 0.03800676763057709, 0.017209937795996666, -0.01038722600787878, -0.02971928007900715, -0.0332556813955307, -0.03452421724796295, -0.02782394550740719, -0.02042817324399948], [0.03732657432556152, 0.03364576771855354, 0.03608030825853348, 0.02594839036464691, 0.015732580795884132, 0.0013894225703552365, -0.008511041291058064, -0.02485997974872589, -0.02116825431585312, -0.025228729471564293, -0.022418556734919548], [0.037667375057935715, 0.03256334364414215, 0.036384694278240204, 0.032716695219278336, 0.01947086863219738, 0.008522126823663712, -0.006436928641051054, -0.02138737216591835, -0.024266408756375313, -0.01877705007791519, -0.025841807946562767]]], "bias": -0.019369620829820633, "layer": "conv1", "i": 4}
{"weights": [[[0.0037611329462379217, -0.0022797363344579935, 0.0023948238231241703, 0.009436190128326416, 0.015156982466578484, 0.01273339707404375, 0.005220914259552956, 0.0029119059909135103, -0.005874586757272482, -0.007160276640206575, 0.001458440558053553], [0.005203690845519304, 0.0012183644575998187, 0.0025815563276410103, -0.00526847317814827, -0.008058380335569382, 0.002721657045185566, 0.005974858999252319, 0.010147890076041222, 0.01003735326230526, 0.001540645258501172, -0.008778885938227177], [-0.022116001695394516, -0.006209182552993298, 0.011971461586654186, 0.021246803924441338, 0.015568813309073448, 0.005402992945164442, -0.0061961449682712555, -0.00825293455272913, -0.0007542750099673867, 0.015661492943763733, 0.017327699810266495], [-0.02403884567320347, -0.04809189215302467, -0.039342064410448074, -0.015091669745743275, 0.015566570684313774, 0.03434433415532112, 0.030161375179886818, 0.010557694360613823, -0.012593123130500317, -0.010707004927098751, 0.013455177657306194], [0.028766149654984474, 0.003574016271159053, -0.048702411353588104, -0.07634778320789337, -0.07456864416599274, -0.040682610124349594, 0.010786723345518112, 0.046909015625715256, 0.028419414535164833, -0.0013080306816846132, -0.0025113008450716734], [0.004772271029651165, 0.04968596249818802, 0.08193805813789368, 0.049950845539569855, -0.03893093019723892, -0.09365454316139221, -0.09826906025409698, -0.04117676615715027, 0.01262773759663105, 0.017663611099123955, 0.0027107554487884045], [-0.018194863572716713, -0.06344661861658096, -0.009388720616698265, 0.07759419083595276, 0.11895343661308289, 0.0751606896519661, -0.009477559477090836, -0.07243068516254425, -0.060566097497940063, -0.029277635738253593, -0.012622680515050888], [0.06537354737520218, 0.005317783448845148, -0.0823492631316185, -0.09870623052120209, -0.028787901625037193, 0.05256516858935356, 0.08794381469488144, 0.06555081903934479, 0.0047251638025045395, -0.01419500820338726, -0.00840187817811966], [0.010447765700519085, 0.10372358560562134, 0.10302067548036575, 0.012224812991917133, -0.07602298259735107, -0.09307924658060074, -0.0593242384493351, -0.003969181329011917, 0.025887861847877502, 0.005720077082514763, 0.002747759222984314], [-0.07566455006599426, -0.07479464262723923, 0.020483726635575294, 0.1062937080860138, 0.11505548655986786, 0.05444904416799545, 0.0006970380782149732, -0.02685689553618431, -0.014649370685219765, -0.0016143321990966797, -0.009771961718797684], [0.042497266083955765, -0.0006250799633562565, -0.06722718477249146, -0.0761101096868515, -0.03699001297354698, 0.005599937401711941, 0.022483790293335915, 0.0226044412702322, 0.005309815518558025, 0.0035418877378106117, 0.012336809188127518]], [[0.006814224179834127, -0.005201938562095165, -0.012123046442866325, -0.005997175816446543, 0.0016223733546212316, -0.003548744600266218, -0.005059622693806887, -0.002798877889290452, -0.008508543483912945, -0.00857086293399334, -0.005672939587384462], [0.020091727375984192, 0.011265027336776257, -0.0007422989001497626, -0.0186512041836977, -0.024706369265913963, -0.017792629078030586, -0.014949284493923187, -0.002471123356372118, 0.007772553246468306, 0.0016196848591789603, -0.013903939165174961], [-1.739050458127167e-05, 0.01850621961057186, 0.02569539286196232, 0.027259930968284607, 0.013018119148910046, -0.006322900764644146, -0.02229747176170349, -0.030971551313996315, -0.018077896907925606, 0.005003614351153374, 0.0059754070825874805], [-0.005259580444544554, -0.015452131628990173, -0.01249655056744814, 0.00897784624248743, 0.032857540994882584, 0.04376187548041344, 0.03746533393859863, 0.00608121557161212, -0.024364594370126724, -0.02305782586336136, -0.0014613951789215207], [0.03775845468044281, 0.030811350792646408, -0.015337870456278324, -0.042168840765953064, -0.04980605095624924, -0.025762496516108513, 0.026414770632982254, 0.06093155965209007, 0.03592512384057045, -0.0016092404257506132, -0.012655053287744522], [-0.019420893862843513, 0.0539233572781086, 0.1079287901520729, 0.09600289911031723, 0.016595205292105675, -0.05586833506822586, -0.08202885091304779, -0.03339793160557747, 0.023320747539401054, 0.02889368310570717, 0.00755824102088809], [-0.0631452202796936, -0.11969118565320969, -0.05782613158226013, 0.07191215455532074, 0.15949681401252747, 0.13896334171295166, 0.04278057813644409, -0.04325370863080025, -0.04436274990439415, -0.013943733647465706, 0.0036300041247159243], [0.06756941229104996, -0.027367783710360527, -0.16621892154216766, -0.19403134286403656, -0.09305937588214874, 0.043630413711071014, 0.12065274268388748, 0.11530876904726028, 0.04539871588349342, 0.018257813528180122, 0.021417798474431038], [0.03450247645378113, 0.15198791027069092, 0.12798413634300232, -0.01477095764130354, -0.1543419361114502, -0.17779946327209473, -0.12012435495853424, -0.025678280740976334, 0.03173648566007614, 0.02520761825144291, 0.029675543308258057], [-0.09605662524700165, -0.06960207968950272, 0.06485794484615326, 0.161623015999794, 0.1401946097612381, 0.04226367175579071, -0.03939928486943245, -0.06830544024705887, -0.04216792806982994, -0.013226466253399849, -0.01468239352107048], [0.0183379165828228, -0.03353240340948105, -0.09216373413801193, -0.07707930356264114, -0.01994745060801506, 0.027943205088377, 0.03748692199587822, 0.02638835273683071, 0.006801021285355091, 0.0033535752445459366, 0.011223218403756618]], [[-0.006950517185032368, -0.012356894090771675, -0.013460028916597366, -0.002147291088476777, 0.007678520400077105, 0.005791735369712114, 0.0068615204654634, 0.007511388976126909, 0.0028484174981713295, 0.0024959987495094538, 0.008400636725127697], [0.014176713302731514, 0.006245351862162352, -0.0025246187578886747, -0.018077613785862923, -0.022633355110883713, -0.013331848196685314, -0.006164239253848791, 0.004436225164681673, 0.01305392850190401, 0.009668695740401745, 9.454840619582683e-05], [-0.00586770148947835, 0.014533525332808495, 0.022894054651260376, 0.020164282992482185, 0.007369811646640301, -0.01276707835495472, -0.02699589543044567, -0.030458956956863403, -0.016160203143954277, 0.008236389607191086, 0.011483613401651382], [-0.009914849884808064, -0.01653856225311756, -0.00960230827331543, 0.005139281507581472, 0.02755015157163143, 0.033357784152030945, 0.028327975422143936, -0.002726360922679305, -0.02789720892906189, -0.028589433059096336, -0.00745076360180974], [0.0196476262062788, 0.024272268638014793, -0.012458490207791328, -0.04101066663861275, -0.04769415408372879, -0.019639138132333755, 0.027830075472593307, 0.05460827425122261, 0.0322725772857666, -0.005341794807463884, -0.01800837740302086], [-0.0395384319126606, 0.03809204325079918, 0.09721270948648453, 0.08923865854740143, 0.016630496829748154, -0.05067968741059303, -0.07183536142110825, -0.0292323287576437, 0.02769462950527668, 0.02857699804008007, 0.0016168250003829598], [-0.0720885694026947, -0.12558966875076294, -0.06174316257238388, 0.05957219749689102, 0.14325785636901855, 0.12220047414302826, 0.03622278943657875, -0.03956577926874161, -0.03573852404952049, -0.006724070757627487, 0.0017836109036579728], [0.06879424303770065, -0.03260033577680588, -0.16530169546604156, -0.19975073635578156, -0.10246801376342773, 0.029723288491368294, 0.10609596967697144, 0.09951245784759521, 0.03451758250594139, 0.01053776778280735, 0.012208379805088043], [0.05434446781873703, 0.15685142576694489, 0.12275408953428268, -0.027739370241761208, -0.16531077027320862, -0.18700478971004486, -0.12859472632408142, -0.040632206946611404, 0.013911432586610317, 0.012708854861557484, 0.013607518747448921], [-0.06483592838048935, -0.037472765892744064, 0.08995312452316284, 0.16935616731643677, 0.13385814428329468, 0.03457314148545265, -0.04644916579127312, -0.08139654994010925, -0.05904563516378403, -0.027137354016304016, -0.03244343400001526], [0.0218708086758852, -0.01991439051926136, -0.0625324621796608, -0.037796322256326675, 0.01572742871940136, 0.05586153641343117, 0.05881049856543541, 0.037348423153162, 0.009333472698926926, -0.004089351277798414, -0.01023558247834444]]], "bias": -0.020947106182575226, "layer": "conv1", "i": 5}
{"weights": [[[0.005829394329339266, 0.00011967866157647222, -0.013788755051791668, -0.010099132545292377, -0.0122391851618886, -0.020324433222413063, -0.021632440388202667, -0.02182038128376007, -0.025359518826007843, -0.020325465127825737, -0.018173664808273315], [0.008176716975867748, -5.28083837707527e-05, -0.003005535341799259, -0.0030933143571019173, -0.0019908493850380182, -0.0014861321542412043, -0.004766072146594524, -0.003458345076069236, -0.0032657734118402004, -0.002341280225664377, 0.008549376390874386], [0.0012626032112166286, 0.0017587445909157395, 0.004942494444549084, -0.0004478328628465533, 0.0057626646012067795, 0.008950943127274513, 0.0026056161150336266, 0.010418884456157684, 0.010903790593147278, 0.0008326328825205564, 0.006807237397879362], [0.005901307798922062, 0.0008943460416048765, -0.002587198279798031, 0.004748660139739513, 0.004102475941181183, 0.006742723286151886, 0.017007650807499886, 0.026922013610601425, 0.01758570596575737, 0.003462755586951971, 0.00705541018396616], [0.013330900110304356, 0.004589748103171587, 0.009166806936264038, 0.01659272611141205, 0.01849227026104927, 0.01070962194353342, 0.0209805965423584, 0.03110773116350174, 0.019095033407211304, 0.005299179349094629, 0.003718026913702488], [0.01724313013255596, 0.009039001539349556, 0.02334587834775448, 0.02620856650173664, 0.024357113987207413, 0.017751559615135193, 0.013516959734261036, 0.011479721404612064, 0.008029458113014698, -0.004241097252815962, -0.0006945880595594645], [0.010087239556014538, -0.002547669457271695, 0.004256647080183029, 0.00911327451467514, 0.007140120025724173, 0.00700121046975255, -0.004097985103726387, -0.010549579747021198, -0.013360240496695042, -0.013805074617266655, -0.012649618089199066], [0.0006939625600352883, -0.00464524794369936, -0.0069941990077495575, -0.008597501553595066, -0.008489146828651428, -0.007509696763008833, -0.009946881793439388, -0.01135806180536747, -0.012250124476850033, -0.015732595697045326, -0.01602516882121563], [-0.005592223722487688, -0.010339489206671715, -0.01888749748468399, -0.01764536090195179, -0.022803062573075294, -0.025256682187318802, -0.019789891317486763, -0.019863896071910858, -0.017425570636987686, -0.010739556513726711, -0.013231009244918823], [-0.0060304938815534115, -0.007931658998131752, -0.003094006795436144, -0.005630210041999817, -0.005905651021748781, -0.006975889205932617, -0.007344082463532686, -0.01444217935204506, -0.01042902935296297, -0.0010746832704171538, -0.0031128106638789177], [0.002050662413239479, 0.0022807081695646048, 0.006468876264989376, 0.008412593975663185, 0.012844772078096867, 0.010929180309176445, 0.011516258120536804, 0.009743868373334408, 0.013156410306692123, 0.008481267839670181, 0.012513824738562107]], [[-0.022441446781158447, -0.02398212067782879, -0.041600968688726425, -0.048300232738256454, -0.05407984182238579, -0.05914514511823654, -0.05630572512745857, -0.051187288016080856, -0.04620920494198799, -0.037847839295864105, -0.030119039118289948], [-0.01911514438688755, -0.024179954081773758, -0.03310244157910347, -0.04187614098191261, -0.04013315215706825, -0.03689860925078392, -0.03021884895861149, -0.019750816747546196, -0.010673838667571545, -0.0002708301763050258, 0.0161215178668499], [-0.020261282101273537, -0.02124221809208393, -0.02128775417804718, -0.024271570146083832, -0.01872384548187256, -0.007266523316502571, 0.00126888498198241, 0.01942877657711506, 0.02171582169830799, 0.016862593591213226, 0.03187517821788788], [-0.008103229105472565, -0.005540957674384117, -0.004466885235160589, 0.004176598507910967, 0.01567617617547512, 0.029211003333330154, 0.04533834755420685, 0.06007344648241997, 0.04932383447885513, 0.03735905513167381, 0.03737982362508774], [0.013087310828268528, 0.015503273345530033, 0.026967037469148636, 0.04415728896856308, 0.055096693336963654, 0.055756665766239166, 0.0643622949719429, 0.07315196096897125, 0.062334805727005005, 0.0406700037419796, 0.03172437101602554], [0.03946162015199661, 0.03681376576423645, 0.057608384639024734, 0.07114966213703156, 0.07698484510183334, 0.0702906921505928, 0.056918319314718246, 0.04683266580104828, 0.034902624785900116, 0.013656992465257645, 0.011226000264286995], [0.035572052001953125, 0.03061448223888874, 0.04156377911567688, 0.042849864810705185, 0.04067261144518852, 0.03391917049884796, 0.012142620049417019, 0.003323897486552596, -0.009900778532028198, -0.01572202704846859, -0.015292538329958916], [0.02488175965845585, 0.022497327998280525, 0.014498659409582615, 0.0029104072600603104, -0.00015550026728305966, -0.00949926394969225, -0.022457340732216835, -0.02914867363870144, -0.0266091488301754, -0.024979738518595695, -0.021621013060212135], [0.00621834397315979, -0.0057680937461555, -0.020686877891421318, -0.0340326763689518, -0.04454686492681503, -0.052408475428819656, -0.049216754734516144, -0.04676042124629021, -0.03652368113398552, -0.02402009256184101, -0.023636797443032265], [-0.00882407184690237, -0.012360922992229462, -0.018039384856820107, -0.03168385848402977, -0.035466160625219345, -0.03665122389793396, -0.033236030489206314, -0.031078508123755455, -0.026840247213840485, -0.009865688160061836, -0.009659642353653908], [-0.010654118843376637, -0.009252074174582958, -0.010338897816836834, -0.008386990055441856, -0.006624883506447077, -0.0038767014630138874, -0.008544654585421085, -0.002247019438073039, 0.001876465859822929, 0.0025620623491704464, -0.003485213965177536]], [[-0.03815833106637001, -0.033363476395606995, -0.05517798662185669, -0.07156255841255188, -0.08075662702322006, -0.08267942070960999, -0.0815533697605133, -0.08104930073022842, -0.07214689999818802, -0.05481173098087311, -0.042791496962308884], [-0.037393663078546524, -0.040226709097623825, -0.054275527596473694, -0.06691586971282959, -0.06681237369775772, -0.0626373216509819, -0.05327852815389633, -0.04168473929166794, -0.02395184151828289, -0.002703367965295911, 0.015649694949388504], [-0.029893210157752037, -0.031012870371341705, -0.03541591018438339, -0.04001907631754875, -0.03248491883277893, -0.019143380224704742, -0.003869477426633239, 0.0180229339748621, 0.03186565265059471, 0.03288886696100235, 0.04288079962134361], [-0.006714231334626675, -0.0040019419975578785, -0.0006558755412697792, 0.009241429157555103, 0.025165792554616928, 0.03881111368536949, 0.05884947627782822, 0.07538429647684097, 0.07265833765268326, 0.06476131081581116, 0.060208190232515335], [0.027865827083587646, 0.031650375574827194, 0.04749726876616478, 0.07025732100009918, 0.07831499725580215, 0.08400323241949081, 0.10055368393659592, 0.10746742784976959, 0.08859587460756302, 0.06790778040885925, 0.054816070944070816], [0.060095712542533875, 0.05993242934346199, 0.08741994202136993, 0.10352522134780884, 0.11173761636018753, 0.11074463278055191, 0.09354730695486069, 0.07753460854291916, 0.059759803116321564, 0.033369746059179306, 0.026289789006114006], [0.057825081050395966, 0.0535440631210804, 0.06748327612876892, 0.06884242594242096, 0.0689379945397377, 0.05812383070588112, 0.029417935758829117, 0.01702713407576084, -0.0003067096695303917, -0.005642920266836882, -0.010304694063961506], [0.05046534165740013, 0.037736937403678894, 0.02748100273311138, 0.011385555379092693, 0.0030345956329256296, -0.01235298439860344, -0.035416822880506516, -0.03749765455722809, -0.03657642379403114, -0.02973042242228985, -0.027764486148953438], [0.011350839398801327, 0.00024031854991335422, -0.021590696647763252, -0.043195948004722595, -0.06011122092604637, -0.07378784567117691, -0.07337208092212677, -0.06916967034339905, -0.054945413023233414, -0.035966742783784866, -0.035985641181468964], [-0.02346845716238022, -0.028937436640262604, -0.03662347048521042, -0.049863558262586594, -0.05617683008313179, -0.056328702718019485, -0.05438420921564102, -0.04948540776968002, -0.039575524628162384, -0.02284887060523033, -0.029904861003160477], [-0.040680892765522, -0.03219883143901825, -0.03174522891640663, -0.029850833117961884, -0.02509458363056183, -0.022232474759221077, -0.024815943092107773, -0.018369771540164948, -0.010566247627139091, -0.013049455359578133, -0.0278291217982769]]], "bias": -0.045961443334817886, "layer": "conv1", "i": 6}
{"weights": [[[-0.00442632706835866, -0.012309274636209011, -0.009798359125852585, -0.018688539043068886, -0.0011782008223235607, 0.052076905965805054, 0.04197348281741142, -0.0040514362044632435, -0.014139977283775806, -4.482268195715733e-05, -0.0036888495087623596], [0.008961457759141922, -0.001320044742897153, 0.0033726836554706097, -0.020063942298293114, -0.06185928359627724, 0.021063145250082016, 0.08991903811693192, 0.02129732072353363, -0.049276936799287796, -0.012004470452666283, 0.012720983475446701], [0.006030801218003035, -0.0008132951916195452, 0.01336814183741808, 0.013002957217395306, -0.07612833380699158, -0.07119503617286682, 0.09161131829023361, 0.1092299297451973, -0.030982227995991707, -0.05571461841464043, 0.012252358719706535], [0.006198476068675518, -0.007496006786823273, 0.0103031350299716, 0.054154906421899796, -0.031064556911587715, -0.14338019490242004, -0.011544623412191868, 0.15222184360027313, 0.05993840843439102, -0.07150470465421677, -0.028672685846686363], [0.003362691728398204, -0.011780777014791965, -0.01808149367570877, 0.06873931735754013, 0.050469353795051575, -0.13137201964855194, -0.1219106912612915, 0.09415125101804733, 0.12968578934669495, -0.019305519759655, -0.05447757989168167], [0.011498132720589638, -0.0037250055465847254, -0.04852204769849777, 0.024297969415783882, 0.1109413430094719, -0.04036420211195946, -0.167915940284729, -0.013386235572397709, 0.11730581521987915, 0.03820692002773285, -0.04332549124956131], [0.0093639325350523, 0.02323726750910282, -0.04688911512494087, -0.04182714596390724, 0.10202682018280029, 0.060890015214681625, -0.11434531211853027, -0.09628216177225113, 0.06808044761419296, 0.0717189684510231, -0.019702019169926643], [-0.0013530146097764373, 0.03270743787288666, -0.0015346991131082177, -0.06792400032281876, 0.02455381490290165, 0.08485498279333115, -0.030198104679584503, -0.10372879356145859, 0.000978447264060378, 0.06277354806661606, 0.0033508408814668655], [-0.007193294353783131, 0.02164163812994957, 0.03107839822769165, -0.03542819619178772, -0.0266411192715168, 0.05116146057844162, 0.0172275323420763, -0.06556377559900284, -0.031222935765981674, 0.030701089650392532, 0.017624912783503532], [-0.004373674746602774, 0.0030252274591475725, 0.021920880302786827, -0.003911497071385384, -0.019873294979333878, 0.019756672903895378, 0.01528092846274376, -0.033805400133132935, -0.024613747373223305, 0.011454828083515167, 0.022971704602241516], [0.0021124263294041157, 0.004188415594398975, 0.012731348164379597, 0.0050893439911305904, -0.008554099127650261, 0.003609629347920418, 0.01562771573662758, -0.03023521974682808, -0.043309301137924194, 0.006775374989956617, 0.024315938353538513]], [[-0.0014359456254169345, -0.008550490252673626, -0.008182741701602936, -0.03603764995932579, -0.02055680751800537, 0.04187764972448349, 0.05130734294652939, -0.009166558273136616, -0.026476416736841202, 0.001521884580142796, -0.009909454733133316], [0.013048529624938965, 0.006832565646618605, 0.006444170139729977, -0.026329386979341507, -0.08587166666984558, 0.00951528362929821, 0.11243297904729843, 0.034035127609968185, -0.05919096618890762, -0.017580006271600723, 0.015447144396603107], [0.010149131529033184, 0.01158552523702383, 0.026753315702080727, 0.012205013073980808, -0.11366728693246841, -0.10957815498113632, 0.10890134423971176, 0.14414380490779877, -0.028139591217041016, -0.07079442590475082, 0.014344566501677036], [0.008258881978690624, 0.0001074957472155802, 0.02952546440064907, 0.07413194328546524, -0.05447143316268921, -0.21026118099689484, -0.031477488577365875, 0.1915401816368103, 0.09252074360847473, -0.07596008479595184, -0.030878793448209763], [0.004544537514448166, -0.00961541198194027, -0.002164318924769759, 0.1042976975440979, 0.06204668805003166, -0.18853789567947388, -0.18386264145374298, 0.10375875979661942, 0.17542578279972076, -0.008809683844447136, -0.0565682053565979], [0.008595559746026993, -0.004139761906117201, -0.0440814234316349, 0.057535067200660706, 0.15491481125354767, -0.06588800251483917, -0.24178922176361084, -0.03723682463169098, 0.15418681502342224, 0.06596805900335312, -0.0367998443543911], [0.00725373113527894, 0.019817914813756943, -0.05258921533823013, -0.030990969389677048, 0.1470266729593277, 0.07583732903003693, -0.16577975451946259, -0.14287923276424408, 0.07580533623695374, 0.09172914922237396, -0.015449023805558681], [-0.009347844868898392, 0.02697400562465191, -0.011669334955513477, -0.07635945081710815, 0.05416925624012947, 0.12311500310897827, -0.04370946064591408, -0.1485593467950821, -0.014770569279789925, 0.07353375107049942, 0.004917587153613567], [-0.009290516376495361, 0.014823065139353275, 0.023668156936764717, -0.045211486518383026, -0.018083075061440468, 0.08465494960546494, 0.028316432610154152, -0.0851147472858429, -0.05320232734084129, 0.030086953192949295, 0.02210303209722042], [-0.009001328609883785, 0.00430402671918273, 0.02022583968937397, -0.009234986267983913, -0.02160981483757496, 0.041972238570451736, 0.0346173457801342, -0.038820408284664154, -0.040595270693302155, 0.00762503407895565, 0.010526347905397415], [-0.006309251766651869, -0.0028312704525887966, 0.013932295143604279, 0.0030499137938022614, -0.013183755800127983, 0.018643079325556755, 0.03581349924206734, -0.019993769004940987, -0.04247773811221123, 0.003500563558191061, 0.007277797441929579]], [[0.00457051070407033, 0.0005672077531926334, 0.00678283954039216, -0.008916301652789116, -0.010211902670562267, 0.01961897313594818, 0.010464656166732311, -0.03392719104886055, -0.027748148888349533, 0.010913152247667313, 0.008084162138402462], [0.0038833145517855883, 0.0028200317174196243, 0.014697397127747536, 0.001811242545954883, -0.04507102072238922, 0.016634326428174973, 0.07392589002847672, -0.008470495231449604, -0.07093023508787155, -0.004432505927979946, 0.034333307296037674], [-0.008043537847697735, -0.004321257118135691, 0.022202640771865845, 0.034957174211740494, -0.06398439407348633, -0.065557099878788, 0.09296336024999619, 0.09428265690803528, -0.057522471994161606, -0.06769721210002899, 0.03172525390982628], [-0.008532652631402016, -0.019078394398093224, 0.014619020745158195, 0.07682763785123825, -0.015272814780473709, -0.13897988200187683, -0.00199538329616189, 0.1530689299106598, 0.036186765879392624, -0.09281297773122787, -0.018221478909254074], [-0.007745156530290842, -0.03105998784303665, -0.02235615998506546, 0.08702857792377472, 0.0749254897236824, -0.12402921169996262, -0.119318887591362, 0.10237473249435425, 0.12275484204292297, -0.04345603659749031, -0.05346563458442688], [0.001702939043752849, -0.02433750219643116, -0.060754138976335526, 0.03649929538369179, 0.14005893468856812, -0.027271246537566185, -0.1625346690416336, -0.002573523437604308, 0.1232183501124382, 0.024930892512202263, -0.04812414199113846], [0.009180335327982903, 0.00809310469776392, -0.0632002204656601, -0.04187898710370064, 0.12573866546154022, 0.0832676813006401, -0.10203389078378677, -0.08678681403398514, 0.0739801824092865, 0.06221180781722069, -0.03357032686471939], [-0.0051763057708740234, 0.018611542880535126, -0.026651522144675255, -0.08513001352548599, 0.03615055978298187, 0.11356306076049805, -0.012814628891646862, -0.09923286736011505, 0.0026720883324742317, 0.05717763304710388, -0.013675667345523834], [-0.002267266856506467, 0.010816317982971668, 0.007637134287506342, -0.058548055589199066, -0.028864195570349693, 0.07671746611595154, 0.038415540009737015, -0.053195610642433167, -0.02912622131407261, 0.02820345014333725, 0.0018424044828861952], [-0.003095699707046151, 0.0034792725928127766, 0.010867041535675526, -0.021368715912103653, -0.03845512121915817, 0.03361433371901512, 0.04201430082321167, -0.012030812911689281, -0.01780794933438301, 0.012856562621891499, -0.005527503788471222], [0.004922816529870033, -0.003436688333749771, -0.0013234643265604973, -0.016143744811415672, -0.029160209000110626, 0.005703415721654892, 0.0426875539124012, 0.0050323582254350185, -0.012489902786910534, 0.015981551259756088, -0.006705214735120535]]], "bias": -0.038222331553697586, "layer": "conv1", "i": 7}
{"weights": [[[0.08109250664710999, 0.06224273517727852, 0.0367354154586792, 0.02664315328001976, 0.0023013039026409388, -0.018939927220344543, -0.03921085596084595, -0.05246756598353386, -0.06487983465194702, -0.0647885873913765, -0.07481884956359863], [0.08869542926549911, 0.07184240221977234, 0.05626162514090538, 0.029543640092015266, 0.011263403110206127, -0.01805821619927883, -0.042308591306209564, -0.06850562244653702, -0.08279773592948914, -0.0835227370262146, -0.09125998616218567], [0.10350321233272552, 0.09308154881000519, 0.07912465929985046, 0.05651096999645233, 0.026428794488310814, -0.010708295740187168, -0.04828156158328056, -0.08152294903993607, -0.10530219972133636, -0.11276789754629135, -0.10520578175783157], [0.1164376363158226, 0.1123504489660263, 0.10174790769815445, 0.082782082259655, 0.04571019485592842, 0.002245375420898199, -0.047151193022727966, -0.09416178613901138, -0.11737386137247086, -0.1271008551120758, -0.12147276103496552], [0.12489612400531769, 0.11577469110488892, 0.11555114388465881, 0.09954442083835602, 0.0611528605222702, 0.009721721522510052, -0.04645076021552086, -0.10331101715564728, -0.1316283792257309, -0.136839359998703, -0.13451068103313446], [0.12885718047618866, 0.12018148601055145, 0.11895300447940826, 0.10360285639762878, 0.06984283030033112, 0.015249205753207207, -0.046253956854343414, -0.09669261425733566, -0.1328241378068924, -0.1396322101354599, -0.13877588510513306], [0.12859822809696198, 0.12546493113040924, 0.11845920234918594, 0.10361743718385696, 0.06824471801519394, 0.019188595935702324, -0.03718399628996849, -0.0879753977060318, -0.12871898710727692, -0.1333882212638855, -0.13669940829277039], [0.123814657330513, 0.12002836167812347, 0.11614672839641571, 0.1008625477552414, 0.06594808399677277, 0.018863525241613388, -0.027842683717608452, -0.07832624018192291, -0.10414770990610123, -0.12445122748613358, -0.12175069749355316], [0.11047954857349396, 0.10571390390396118, 0.10263916850090027, 0.08396994322538376, 0.05418740585446358, 0.012992964126169682, -0.02755904383957386, -0.06207755208015442, -0.09123124182224274, -0.10275699943304062, -0.10580085217952728], [0.10324004292488098, 0.0916857048869133, 0.0829126387834549, 0.07096844911575317, 0.04297894611954689, 0.014548780396580696, -0.011726024560630322, -0.0419851690530777, -0.06643988937139511, -0.07036527246236801, -0.09195446968078613], [0.10932528972625732, 0.08978782594203949, 0.08182104676961899, 0.05657104775309563, 0.04347798973321915, 0.01829509064555168, -0.0020228391513228416, -0.018971474841237068, -0.037377599626779556, -0.05314100906252861, -0.06805628538131714]], [[-0.015177861787378788, -0.003234597621485591, -0.0035626643802970648, 0.0062094456516206264, 0.0068614124320447445, 0.009590424597263336, 0.007178219500929117, 0.015332641080021858, 0.0190969780087471, 0.014445370063185692, 0.017704693600535393], [-0.019592206925153732, -0.011510847136378288, -0.005904924590140581, -0.006782760843634605, 0.006120273843407631, 0.009459242224693298, 0.012902681715786457, 0.012447211891412735, 0.021527081727981567, 0.01834363117814064, 0.01759624294936657], [-0.023573290556669235, -0.017288973554968834, -0.01451293658465147, -0.010915585793554783, 0.0022244493011385202, 0.009681902825832367, 0.012161938473582268, 0.017473071813583374, 0.02286340668797493, 0.021130211651325226, 0.0244018342345953], [-0.021479139104485512, -0.02259232848882675, -0.018980398774147034, -0.015377869829535484, -0.0027352175675332546, 0.0055249277502298355, 0.011052717454731464, 0.011313168331980705, 0.023999681696295738, 0.021520815789699554, 0.027398299425840378], [-0.024244973435997963, -0.026168081909418106, -0.01899733766913414, -0.017903536558151245, -0.004465889651328325, 0.008092292584478855, 0.015179716050624847, 0.013034462928771973, 0.022457603365182877, 0.024622676894068718, 0.026429299265146255], [-0.024529268965125084, -0.026502054184675217, -0.02107248827815056, -0.018740911036729813, -0.008772249333560467, 0.001862957957200706, 0.012763654813170433, 0.0186920128762722, 0.020070793107151985, 0.025228645652532578, 0.025900112465023994], [-0.02907310053706169, -0.026136964559555054, -0.023548005148768425, -0.019497474655508995, -0.013759436085820198, -0.0024692292790859938, 0.009781544096767902, 0.01645321026444435, 0.015206228941679, 0.027998413890600204, 0.029580097645521164], [-0.026082631200551987, -0.028490489348769188, -0.026203108951449394, -0.02031032368540764, -0.012752022594213486, -0.0025692875497043133, 0.006098145619034767, 0.008550290949642658, 0.019952943548560143, 0.0171205997467041, 0.029341161251068115], [-0.024931009858846664, -0.025277649983763695, -0.023691341280937195, -0.022027185186743736, -0.013006903231143951, -0.007850997149944305, 0.001183584681712091, 0.00829935073852539, 0.015085684135556221, 0.016284001991152763, 0.022040536627173424], [-0.025279369205236435, -0.020440615713596344, -0.02139424718916416, -0.018158290535211563, -0.01498776488006115, -0.010144716128706932, -0.001781883416697383, 0.004585816524922848, 0.010664904490113258, 0.015571565367281437, 0.015431404113769531], [-0.02407226525247097, -0.023643452674150467, -0.01599915139377117, -0.019793974235653877, -0.012708785943686962, -0.014543763361871243, -0.00988642405718565, -0.00401834724470973, 0.004784674383699894, 0.006081107072532177, 0.012949520722031593]], [[-0.06830504536628723, -0.046559903770685196, -0.036585405468940735, -0.021515296772122383, -0.009112052619457245, 0.01016788650304079, 0.022215384989976883, 0.041121840476989746, 0.049098577350378036, 0.049808040261268616, 0.05319727957248688], [-0.0722024217247963, -0.06004193797707558, -0.047941725701093674, -0.037666067481040955, -0.013619767501950264, 0.005191434640437365, 0.03282461687922478, 0.05136767029762268, 0.06656328588724136, 0.06546176970005035, 0.06399049609899521], [-0.08153484016656876, -0.07047027349472046, -0.06810925155878067, -0.05163251608610153, -0.029352299869060516, -0.002642666455358267, 0.03305609151721001, 0.067659892141819, 0.08782272040843964, 0.08907686173915863, 0.08859436959028244], [-0.08697561174631119, -0.08136706799268723, -0.08300045132637024, -0.07366803288459778, -0.0497315414249897, -0.013341347686946392, 0.03193974494934082, 0.07329141348600388, 0.11095680296421051, 0.10640615969896317, 0.10200447589159012], [-0.08995970338582993, -0.09348540753126144, -0.0896262601017952, -0.08439149707555771, -0.05731333792209625, -0.018435237929224968, 0.03265870735049248, 0.0747743546962738, 0.11718053370714188, 0.12422744184732437, 0.11516717076301575], [-0.09155786037445068, -0.09676600247621536, -0.09617580473423004, -0.08671016991138458, -0.05859676003456116, -0.0216334480792284, 0.023426199331879616, 0.07634187489748001, 0.11328977346420288, 0.12840330600738525, 0.12004712224006653], [-0.09482838213443756, -0.09878084063529968, -0.09858104586601257, -0.08369065821170807, -0.05900639668107033, -0.020361464470624924, 0.021642442792654037, 0.07047536224126816, 0.10074936598539352, 0.12470383942127228, 0.11997257173061371], [-0.09059955924749374, -0.09563832730054855, -0.09152361750602722, -0.07613090425729752, -0.0525645986199379, -0.019521355628967285, 0.02152225747704506, 0.058532338589429855, 0.09534350782632828, 0.10249307751655579, 0.11013065278530121], [-0.083114854991436, -0.08485569059848785, -0.08225897699594498, -0.07001392543315887, -0.043996378779411316, -0.015128611586987972, 0.01842970959842205, 0.049472223967313766, 0.07525899261236191, 0.08461757749319077, 0.09492431581020355], [-0.07687627524137497, -0.07266242802143097, -0.06771877408027649, -0.053813155740499496, -0.037024594843387604, -0.011390671133995056, 0.012161963619291782, 0.03555355966091156, 0.05270539969205856, 0.06450670957565308, 0.07722427695989609], [-0.07518191635608673, -0.07375562936067581, -0.05843864753842354, -0.053211111575365067, -0.03206823021173477, -0.016969652846455574, 0.0005582330632023513, 0.01350885909050703, 0.033378809690475464, 0.045912183821201324, 0.06394363939762115]]], "bias": -0.0292931217700243, "layer": "conv1", "i": 8}
{"weights": [[[-0.004830991383641958, -0.02118830941617489, -0.030441895127296448, -0.031762052327394485, -0.03710435330867767, -0.0323532335460186, -0.028328564018011093, -0.020271524786949158, -0.01760045252740383, -0.012716014869511127, 0.0028308609034866095], [-0.01581215299665928, -0.033089593052864075, -0.04857455939054489, -0.05286869779229164, -0.04996615648269653, -0.04503322020173073, -0.0416237972676754, -0.03214463219046593, -0.026046032086014748, -0.016558663919568062, -0.0015564325731247663], [-0.023559000343084335, -0.043643731623888016, -0.05903424695134163, -0.06223031505942345, -0.06236473098397255, -0.05307454243302345, -0.04314751178026199, -0.03472064808011055, -0.027680205181241035, -0.015347929671406746, -0.003927314653992653], [-0.02015009894967079, -0.0445881187915802, -0.05877847597002983, -0.05673123896121979, -0.05914567783474922, -0.05113641545176506, -0.03933711722493172, -0.026590019464492798, -0.016853395849466324, -0.008634470403194427, -0.0005881990073248744], [-0.00588427297770977, -0.030676499009132385, -0.04088935628533363, -0.03905488923192024, -0.04230187460780144, -0.03393251448869705, -0.02023683302104473, -0.0068092974834144115, 0.004365438129752874, 0.0026354703586548567, 0.00947872456163168], [0.008142051286995411, -0.012381346896290779, -0.02522394433617592, -0.023931806907057762, -0.018557747825980186, -0.011824474669992924, -9.221378422807902e-05, 0.011092044413089752, 0.017701726406812668, 0.01423292513936758, 0.015623990446329117], [0.014361897483468056, 0.0022355630062520504, -0.00580592080950737, 0.0003370103659108281, 0.0052225529216229916, 0.016391156241297722, 0.023215897381305695, 0.031451575458049774, 0.03016970492899418, 0.017692215740680695, 0.01914270594716072], [0.02106098271906376, 0.01188453659415245, 0.008871086873114109, 0.0171030405908823, 0.025299398228526115, 0.0354834608733654, 0.03747904673218727, 0.044184360653162, 0.03744208440184593, 0.024426991119980812, 0.019908830523490906], [0.028584634885191917, 0.0184236541390419, 0.019818736240267754, 0.030475040897727013, 0.03547625616192818, 0.049699071794748306, 0.051876068115234375, 0.045378316193819046, 0.038880396634340286, 0.027510622516274452, 0.02353501506149769], [0.03152376785874367, 0.024507787078619003, 0.02268056571483612, 0.027629384770989418, 0.03808944672346115, 0.04269345849752426, 0.04480642452836037, 0.042062241584062576, 0.03226509317755699, 0.021663576364517212, 0.0153219448402524], [0.03914373740553856, 0.026631945744156837, 0.028350496664643288, 0.038855019956827164, 0.04524534195661545, 0.04713832214474678, 0.04042518138885498, 0.04226908087730408, 0.03346001356840134, 0.018376072868704796, 0.009650741703808308]], [[0.04442219063639641, 0.05123255401849747, 0.0624496191740036, 0.070938341319561, 0.06901735067367554, 0.06898654252290726, 0.06296136230230331, 0.056890156120061874, 0.044824499636888504, 0.03174955025315285, 0.021215498447418213], [0.046550456434488297, 0.06426233798265457, 0.0761052668094635, 0.08478149771690369, 0.08520960807800293, 0.08118680864572525, 0.07393795251846313, 0.06540840119123459, 0.04746798798441887, 0.03221061825752258, 0.014929006807506084], [0.047761909663677216, 0.06810974329710007, 0.0837620198726654, 0.09282715618610382, 0.08861701935529709, 0.08415845036506653, 0.07934565842151642, 0.06619003415107727, 0.045810598880052567, 0.027412021532654762, 0.006022964138537645], [0.0479164645075798, 0.06662802398204803, 0.08129153400659561, 0.0906868577003479, 0.08637561649084091, 0.0773371160030365, 0.06817048788070679, 0.056325409561395645, 0.03470597043633461, 0.015255372039973736, -0.00043288696906529367], [0.04114630073308945, 0.056942787021398544, 0.06885752826929092, 0.07757733017206192, 0.0732015073299408, 0.06341394782066345, 0.04948591813445091, 0.03516845405101776, 0.018277818337082863, 0.0018738151993602514, -0.010170169174671173], [0.02834502048790455, 0.03760496526956558, 0.042054787278175354, 0.049968019127845764, 0.04778464883565903, 0.03292939066886902, 0.017906157299876213, 0.0037305657751858234, -0.007678206544369459, -0.01618182845413685, -0.027028920128941536], [0.008253202773630619, 0.01567639224231243, 0.01647399365901947, 0.020588723942637444, 0.012220513075590134, 0.003128729062154889, -0.01344972476363182, -0.02167580835521221, -0.029037313535809517, -0.03862360119819641, -0.03760169446468353], [-0.004962536972016096, -0.00432188855484128, -0.006034811958670616, -0.008987695910036564, -0.018061066046357155, -0.02567402459681034, -0.042083289474248886, -0.042036086320877075, -0.048572953790426254, -0.05091974511742592, -0.04542725160717964], [-0.021537628024816513, -0.0237457025796175, -0.02878277376294136, -0.03445620462298393, -0.04421459883451462, -0.04873082786798477, -0.05995013564825058, -0.06614784151315689, -0.062156859785318375, -0.06009311601519585, -0.05228832736611366], [-0.03482741117477417, -0.039983510971069336, -0.0470743365585804, -0.05835309252142906, -0.0638142079114914, -0.07292427867650986, -0.07545033097267151, -0.07818973809480667, -0.07455084472894669, -0.06616240739822388, -0.05982421711087227], [-0.03873462975025177, -0.05218752101063728, -0.05602123960852623, -0.059931717813014984, -0.06777842342853546, -0.07276082038879395, -0.07572642713785172, -0.06735669076442719, -0.06778132170438766, -0.0625729188323021, -0.0643957182765007]], [[-0.03110561892390251, -0.044627901166677475, -0.05364200845360756, -0.05813388153910637, -0.06162828579545021, -0.05795801058411598, -0.055513106286525726, -0.04746539890766144, -0.03653068467974663, -0.022766247391700745, -0.007072286680340767], [-0.04665195196866989, -0.0570661760866642, -0.06515079736709595, -0.07221212983131409, -0.07169211655855179, -0.06863466650247574, -0.06381087750196457, -0.05327007547020912, -0.04093831405043602, -0.023639431223273277, -0.00844758003950119], [-0.05639733374118805, -0.06504324078559875, -0.07612098008394241, -0.08219621330499649, -0.08731617778539658, -0.08066878467798233, -0.06933019310235977, -0.05570390820503235, -0.04265042021870613, -0.0241046454757452, -0.011241222731769085], [-0.056824102997779846, -0.06821709126234055, -0.07699744403362274, -0.08085910975933075, -0.08292892575263977, -0.07937272638082504, -0.06634225696325302, -0.04610880836844444, -0.03233786299824715, -0.016620583832263947, -0.002443564124405384], [-0.044411689043045044, -0.05693492665886879, -0.06712520867586136, -0.07128291577100754, -0.06948191672563553, -0.06053444370627403, -0.04852725565433502, -0.030455244705080986, -0.010530954226851463, -0.00028380012372508645, 0.015284924767911434], [-0.027630427852272987, -0.03805211931467056, -0.05473833158612251, -0.05634497106075287, -0.048911046236753464, -0.040901895612478256, -0.029308689758181572, -0.01195892971009016, 0.006416827440261841, 0.019342027604579926, 0.02780785784125328], [-0.01812419667840004, -0.01989627070724964, -0.029527336359024048, -0.02691514790058136, -0.026108575984835625, -0.011504298076033592, -0.0013217109953984618, 0.015992719680070877, 0.028361350297927856, 0.03550715744495392, 0.04043573886156082], [0.0016758522251620889, 0.0014251915272325277, 0.0015724280383437872, 0.003032711334526539, 0.00703649315983057, 0.019622040912508965, 0.027573317289352417, 0.042367834597826004, 0.04770622402429581, 0.050019580870866776, 0.05185387656092644], [0.009385771118104458, 0.01570725627243519, 0.020792407914996147, 0.02424965240061283, 0.03331742063164711, 0.05150681361556053, 0.06125807762145996, 0.06432396173477173, 0.06632127612829208, 0.062071722000837326, 0.05769273638725281], [0.022462978959083557, 0.029340866953134537, 0.03324069082736969, 0.03887861222028732, 0.052526768296957016, 0.061960745602846146, 0.07557635009288788, 0.07771865278482437, 0.0706140547990799, 0.06496287137269974, 0.05897440016269684], [0.03361370414495468, 0.035301003605127335, 0.0458490252494812, 0.06074066832661629, 0.07375670969486237, 0.08403567224740982, 0.08808743208646774, 0.0940154418349266, 0.08321927487850189, 0.07658948749303818, 0.06386642158031464]]], "bias": -0.014958529733121395, "layer": "conv1", "i": 9}
{"weights": [[[0.011559064500033855, 0.02231205813586712, 0.036763496696949005, 0.042917631566524506, 0.049331050366163254, 0.054582610726356506, 0.05872689187526703, 0.06079759821295738, 0.05443451553583145, 0.04692456126213074, 0.04102730005979538], [0.01887933909893036, 0.019450124353170395, 0.0327681303024292, 0.04277796670794487, 0.049010179936885834, 0.05051834136247635, 0.05725695937871933, 0.0548083558678627, 0.057684000581502914, 0.04273272305727005, 0.0450003556907177], [0.017780298367142677, 0.0224764421582222, 0.02852705307304859, 0.043975841253995895, 0.05060260742902756, 0.05135585740208626, 0.05574985221028328, 0.057345252484083176, 0.05235404148697853, 0.0455043725669384, 0.040788959711790085], [0.018407030031085014, 0.019447406753897667, 0.033199112862348557, 0.042691800743341446, 0.050201285630464554, 0.053257089108228683, 0.054213136434555054, 0.05194420367479324, 0.05489160493016243, 0.047189343720674515, 0.0403299517929554], [0.018431946635246277, 0.023593345656991005, 0.03778357803821564, 0.041171517223119736, 0.04966075345873833, 0.05232902243733406, 0.053857672959566116, 0.05331612378358841, 0.05072631686925888, 0.04912211373448372, 0.04387013241648674], [0.017941540107131004, 0.02268439717590809, 0.03696378692984581, 0.04021414741873741, 0.045259326696395874, 0.04562400281429291, 0.05443992465734482, 0.049688998609781265, 0.045723963528871536, 0.0396139957010746, 0.04178599268198013], [0.016600266098976135, 0.01809035614132881, 0.028839964419603348, 0.03623673692345619, 0.0393739752471447, 0.041178252547979355, 0.04355253651738167, 0.04223830625414848, 0.039682451635599136, 0.03446156159043312, 0.037395965307950974], [0.017052331939339638, 0.01668369211256504, 0.023987626656889915, 0.037815071642398834, 0.03648137301206589, 0.03765760362148285, 0.03964478150010109, 0.03849512338638306, 0.03675525262951851, 0.03702272102236748, 0.0387154147028923], [0.015801388770341873, 0.016649466007947922, 0.02492811530828476, 0.03250284865498543, 0.036714669317007065, 0.03505941480398178, 0.03906983882188797, 0.040862876921892166, 0.037584904581308365, 0.0304481890052557, 0.03522665426135063], [0.013713588938117027, 0.014776106923818588, 0.02484443224966526, 0.03233063593506813, 0.032763026654720306, 0.03780517727136612, 0.041074831038713455, 0.04161044955253601, 0.03581669181585312, 0.030269591137766838, 0.03565307706594467], [0.023531822487711906, 0.021004855632781982, 0.02879091165959835, 0.029065579175949097, 0.035053711384534836, 0.040036704391241074, 0.03901992738246918, 0.04136174917221069, 0.03796347230672836, 0.032683104276657104, 0.03402705863118172]], [[-0.0010700431885197759, -0.005931880325078964, -0.007550520822405815, -0.016866380348801613, -0.023648647591471672, -0.028600310906767845, -0.029413612559437752, -0.028722411021590233, -0.029787562787532806, -0.02637779898941517, -0.02040904015302658], [0.0021542347967624664, -0.012464758940041065, -0.016890808939933777, -0.0197968278080225, -0.025250401347875595, -0.03280523046851158, -0.030385959893465042, -0.03356547653675079, -0.026864713057875633, -0.03283427655696869, -0.021846884861588478], [-0.0019338610582053661, -0.016454113647341728, -0.02654903754591942, -0.022145576775074005, -0.026067059487104416, -0.0320124477148056, -0.032753217965364456, -0.02920105867087841, -0.03099646046757698, -0.03063528798520565, -0.02806880883872509], [-0.004446904640644789, -0.01971951499581337, -0.022861499339342117, -0.022754261270165443, -0.02484840154647827, -0.0273734237998724, -0.028865190222859383, -0.031046414747834206, -0.025874309241771698, -0.02871999330818653, -0.030011877417564392], [-0.003412386402487755, -0.01574891246855259, -0.01616153120994568, -0.022438444197177887, -0.023931998759508133, -0.026300255209207535, -0.026873642578721046, -0.027773478999733925, -0.02929769828915596, -0.027588792145252228, -0.028953012079000473], [-0.0008648697985336185, -0.01460887398570776, -0.015708772465586662, -0.020593658089637756, -0.023679014295339584, -0.028485452756285667, -0.02060135453939438, -0.025270594283938408, -0.027379106730222702, -0.0338071770966053, -0.028492124751210213], [0.0008612371748313308, -0.015567527152597904, -0.018359707668423653, -0.021647974848747253, -0.024308854714035988, -0.02796875312924385, -0.026827901601791382, -0.028697650879621506, -0.03328178450465202, -0.03685780242085457, -0.030863692983984947], [0.0016507658874616027, -0.013212180696427822, -0.016812743619084358, -0.016603821888566017, -0.024522200226783752, -0.027710627764463425, -0.028140822425484657, -0.030657174065709114, -0.031898241490125656, -0.02896515280008316, -0.022403962910175323], [0.004206094425171614, -0.009066710248589516, -0.013143403455615044, -0.017125103622674942, -0.021676916629076004, -0.028857804834842682, -0.02597685717046261, -0.024934792891144753, -0.02594663016498089, -0.026959922164678574, -0.01658448949456215], [0.0024673158768564463, -0.010891425423324108, -0.013503333553671837, -0.016089262440800667, -0.02220943197607994, -0.02529016137123108, -0.024049777537584305, -0.023422924801707268, -0.024265307933092117, -0.02093212492763996, -0.010152441449463367], [0.008032845333218575, -0.007849952206015587, -0.013045144267380238, -0.020382750779390335, -0.020985839888453484, -0.0202772356569767, -0.025313660502433777, -0.02338421903550625, -0.020778173580765724, -0.016909414902329445, -0.009388383477926254]], [[0.0145995132625103, 0.005624306853860617, -0.002099545206874609, -0.014884489588439465, -0.025105103850364685, -0.033538687974214554, -0.03598274663090706, -0.03750446438789368, -0.033456601202487946, -0.02164362370967865, -0.014582726173102856], [0.016059136018157005, -0.004432206973433495, -0.01633591391146183, -0.02562456950545311, -0.034989431500434875, -0.04565653204917908, -0.04431268945336342, -0.04573742300271988, -0.03263896703720093, -0.03503630682826042, -0.023520411923527718], [0.009327244013547897, -0.009893572889268398, -0.028844648972153664, -0.03094721958041191, -0.03818289190530777, -0.04596620425581932, -0.04679271951317787, -0.04057630896568298, -0.041202694177627563, -0.037309300154447556, -0.03304405137896538], [0.0013172024628147483, -0.02153323031961918, -0.02874024026095867, -0.033179428428411484, -0.038788922131061554, -0.042846210300922394, -0.04389281943440437, -0.04407328739762306, -0.035979218780994415, -0.03660080209374428, -0.034916602075099945], [0.0018905255710706115, -0.01892905682325363, -0.02506665140390396, -0.03633461520075798, -0.038934215903282166, -0.04050260782241821, -0.0392744354903698, -0.040462225675582886, -0.037624917924404144, -0.03280828148126602, -0.0332707054913044], [0.004763208329677582, -0.016849074512720108, -0.023450803011655807, -0.03009500540792942, -0.03328803554177284, -0.03680906817317009, -0.029085258021950722, -0.03131939843297005, -0.030046112835407257, -0.03576219454407692, -0.03076586127281189], [0.006202584132552147, -0.01627267524600029, -0.02236243523657322, -0.02702220156788826, -0.028727872297167778, -0.030411383137106895, -0.031194699928164482, -0.031739894300699234, -0.03476864472031593, -0.03778764232993126, -0.030191220343112946], [0.010736550204455853, -0.010623998008668423, -0.02043302357196808, -0.020849287509918213, -0.02883194014430046, -0.029575001448392868, -0.03135581687092781, -0.032685697078704834, -0.03317122533917427, -0.02922753058373928, -0.022456718608736992], [0.014241565950214863, -0.004609100054949522, -0.015476567670702934, -0.019402815029025078, -0.023045631125569344, -0.031193219125270844, -0.0304020456969738, -0.029466411098837852, -0.02684001810848713, -0.02454671449959278, -0.014035525731742382], [0.010862261988222599, -0.005569523200392723, -0.013295290060341358, -0.01552866492420435, -0.023146886378526688, -0.026844829320907593, -0.02820652350783348, -0.02686668001115322, -0.023944703862071037, -0.018555602058768272, -0.006308780517429113], [0.016672983765602112, -0.0012897555716335773, -0.01073809340596199, -0.019683483988046646, -0.021238040179014206, -0.021874533966183662, -0.027918320149183273, -0.025795534253120422, -0.02106376178562641, -0.012405850924551487, -0.0023013059981167316]]], "bias": -0.015046775341033936, "layer": "conv1", "i": 10}
{"weights": [[[0.016227977350354195, 0.017774207517504692, 0.021953660994768143, 0.026713920757174492, 0.02943957969546318, 0.031358055770397186, 0.031744543462991714, 0.02487979643046856, 0.022493598982691765, 0.017538802698254585, 0.012144859880208969], [0.013244062662124634, 0.015100155957043171, 0.021332764998078346, 0.019976850599050522, 0.0210881344974041, 0.02060014382004738, 0.022983545437455177, 0.025337886065244675, 0.022054776549339294, 0.015187646262347698, 0.008715339936316013], [0.013175800442695618, 0.01658293604850769, 0.018975218757987022, 0.015278901904821396, 0.013000620529055595, 0.012602083384990692, 0.013426573947072029, 0.015698911622166634, 0.01888927072286606, 0.013225823640823364, 0.012652372010052204], [0.0107837850227952, 0.01606164127588272, 0.015519079752266407, 0.006359199061989784, 0.002067295368760824, 0.00454529095441103, 0.010015828534960747, 0.020004497841000557, 0.017421798780560493, 0.017197946086525917, 0.010227595455944538], [0.016960328444838524, 0.020904434844851494, 0.018521634861826897, 0.0009056293056346476, 0.0004199998511467129, -0.009015715681016445, 0.0030821014661341906, 0.014834319241344929, 0.0227565448731184, 0.02247426100075245, 0.022817684337496758], [0.011033263057470322, 0.009111420251429081, 0.009971984662115574, 0.0045226761139929295, 0.0018896961119025946, 0.002742213662713766, 0.009784280322492123, 0.013638492673635483, 0.017366677522659302, 0.01520437840372324, 0.011185705661773682], [0.008607401512563229, 0.006135588511824608, 0.011721313931047916, 0.010514882393181324, 0.009458327665925026, 0.016352327540516853, 0.01514340564608574, 0.018996646627783775, 0.016499493271112442, 0.009449382312595844, 0.010711101815104485], [0.002501595299690962, 0.0036753604654222727, 0.007539082318544388, 0.0068227085284888744, 0.007856323383748531, 0.0156908817589283, 0.014436443336308002, 0.015188935212790966, 0.014013468287885189, 0.0070068081840872765, 0.001959236804395914], [0.0026583652943372726, 0.0005391782615333796, 0.008595991879701614, 0.005066838581115007, 0.010080160573124886, 0.015944411978125572, 0.018229449167847633, 0.013555902987718582, 0.010247338563203812, 0.006519232410937548, 0.006277716252952814], [-0.008639932610094547, -0.009381039999425411, -0.004290939774364233, 0.00017290747200604528, 0.003683460643514991, 0.00934623833745718, 0.00593092804774642, 0.0030726641416549683, 0.0035545595455914736, -0.004591259639710188, -0.00033071768120862544], [-0.001230184338055551, -0.009160914458334446, -0.007778149098157883, -0.0026173179503530264, -0.0010791157837957144, 0.004779392387717962, -0.0020857781637459993, -0.00346732116304338, 0.0007495766039937735, -0.004697783850133419, -0.004939394537359476]], [[0.036075394600629807, 0.016190769150853157, -0.014330959878861904, -0.036207325756549835, -0.05748198181390762, -0.06489910185337067, -0.0641598030924797, -0.056155458092689514, -0.03014029748737812, -0.006317703519016504, 0.015367647632956505], [0.020864637568593025, -0.0033182266633957624, -0.03720911592245102, -0.07061082869768143, -0.09778750687837601, -0.11169495433568954, -0.10717752575874329, -0.08289958536624908, -0.055983200669288635, -0.02232242375612259, 0.002330358140170574], [0.012114914134144783, -0.022310668602585793, -0.06266304850578308, -0.10155589133501053, -0.13492125272750854, -0.15051084756851196, -0.1454656422138214, -0.1190912276506424, -0.07644620537757874, -0.043199002742767334, -0.0064984033815562725], [-0.00026052084285765886, -0.03386985510587692, -0.07836561650037766, -0.12716524302959442, -0.1642448455095291, -0.1769276261329651, -0.16813118755817413, -0.13257068395614624, -0.09463471174240112, -0.05416278541088104, -0.022943327203392982], [0.004926057532429695, -0.03071090206503868, -0.0794278010725975, -0.1307045966386795, -0.1627783626317978, -0.18422649800777435, -0.17259684205055237, -0.13531729578971863, -0.08983783423900604, -0.05142473801970482, -0.014543494209647179], [0.00739444512873888, -0.027032427489757538, -0.07195654511451721, -0.11017052829265594, -0.14318963885307312, -0.15783312916755676, -0.14668528735637665, -0.11757568269968033, -0.08246485888957977, -0.04324086382985115, -0.013327520340681076], [0.018653202801942825, -0.010970733128488064, -0.04697629064321518, -0.0816584974527359, -0.10561712831258774, -0.11166206002235413, -0.10984917730093002, -0.08944529294967651, -0.0582885816693306, -0.03160351887345314, -0.0009699679794721305], [0.02720760367810726, 0.0031962215434759855, -0.023583699017763138, -0.051800455898046494, -0.07415377348661423, -0.0790749192237854, -0.07701147347688675, -0.06281493604183197, -0.04266029968857765, -0.018572259694337845, 0.001841908786445856], [0.039143867790699005, 0.01654122583568096, -0.0004472256114240736, -0.021523065865039825, -0.04059110954403877, -0.04690961539745331, -0.04106276109814644, -0.03391106054186821, -0.02058304473757744, -0.005317603703588247, 0.015130576677620411], [0.0446024127304554, 0.032014258205890656, 0.015838351100683212, -0.0009822150459513068, -0.013464255258440971, -0.017358507961034775, -0.024537622928619385, -0.015492771752178669, -0.004271240439265966, 0.0057307761162519455, 0.02324281632900238], [0.05554725229740143, 0.039008188992738724, 0.024400752037763596, 0.013717791996896267, 0.004055034834891558, 0.0020724001806229353, -0.005452902987599373, -0.001422493951395154, 0.012482969090342522, 0.018385417759418488, 0.03092353045940399]], [[-0.05612068250775337, -0.02658163011074066, -0.008025203831493855, 0.016576796770095825, 0.032145094126462936, 0.04927767440676689, 0.04117271304130554, 0.02445264719426632, 0.009531890042126179, -0.013153566978871822, -0.03525565564632416], [-0.038584738969802856, -0.006629469804465771, 0.020546095445752144, 0.0547722727060318, 0.0798795223236084, 0.09720157831907272, 0.08757174015045166, 0.06648960709571838, 0.03717684745788574, 0.01650174707174301, -0.01803544908761978], [-0.021165845915675163, 0.009828201495110989, 0.04378616064786911, 0.08914414048194885, 0.12438887357711792, 0.13729189336299896, 0.125141441822052, 0.09385747462511063, 0.060299213975667953, 0.029326042160391808, -0.0004200691473670304], [-0.020886829122900963, 0.022878628224134445, 0.06208242103457451, 0.11063805967569351, 0.1468430608510971, 0.16380780935287476, 0.14730949699878693, 0.11853004992008209, 0.07475697994232178, 0.037275947630405426, -0.0012938963482156396], [-0.01199275255203247, 0.026225684210658073, 0.06460213661193848, 0.11172929406166077, 0.15056771039962769, 0.15767543017864227, 0.1410943865776062, 0.10880029946565628, 0.0739445760846138, 0.0350969024002552, -0.0001256410760106519], [-0.0184369757771492, 0.01344700250774622, 0.053817663341760635, 0.09913978725671768, 0.12733975052833557, 0.13085249066352844, 0.11763487756252289, 0.09369316697120667, 0.057816822081804276, 0.028569666668772697, -0.006185077130794525], [-0.02412186935544014, 0.008071860298514366, 0.04085944592952728, 0.06973684579133987, 0.09279967844486237, 0.10115616768598557, 0.09158945083618164, 0.07208126783370972, 0.04704878479242325, 0.016084617003798485, -0.005799731705337763], [-0.03323410451412201, -0.0036537523847073317, 0.021415192633867264, 0.04590173810720444, 0.060433946549892426, 0.06301041692495346, 0.05921153351664543, 0.04242569953203201, 0.030032316222786903, 0.009884260594844818, -0.01313187275081873], [-0.03899049758911133, -0.019308390095829964, 0.002402658574283123, 0.022317659109830856, 0.03195028752088547, 0.0353427529335022, 0.03751659020781517, 0.028570184484124184, 0.013722328469157219, -0.0001303556637139991, -0.012271642684936523], [-0.04577632248401642, -0.02272818237543106, -0.009183341637253761, 0.0015720572555437684, 0.01242904458194971, 0.020022904500365257, 0.012955782935023308, 0.010999421589076519, 0.006403561215847731, -0.006304303649812937, -0.02042807824909687], [-0.05418896675109863, -0.03476293757557869, -0.02774692326784134, -0.014700802974402905, -0.004204884171485901, 0.004635242745280266, 0.0008300467161461711, -0.0022957450710237026, -0.0038109873421490192, -0.019267821684479713, -0.03679937496781349]]], "bias": -0.012517204508185387, "layer": "conv1", "i": 11}
